{"layer_sizes": [170, 256, 128, 64, 1], "weights": [[[0.07253499761868984, 0.055346639525796965, -0.010983041157776624, -0.08581543319275176, -0.10467089282469695, 0.05606636126745821, 0.04824372898259995, 0.020292587139450858, -0.0013600613944534034, 0.05409752278540363, -0.02775454578525147, 0.11506979240705204, -0.00793699279486587, -0.09124426899643065, -0.054136434020063344, -0.19501877560993142, -0.033939914894916136, 0.026382553534931144, 0.009618904502053733, 0.024101599619940493, -0.07441235804605052, -0.06672539962126538, -0.037996140619779566, -0.08960011581225788, 0.012332730960347602, 0.14618648251283414, -0.06011239351213959, 0.09446606791027348, 0.09441418767768396, -0.05471498813560646, 0.06907547294388552, 0.04201720638268734, -0.043835171881361976, 0.09642066878347379, -0.06314752851375453, -0.02965612388797073, 0.024436236766327918, 0.021030085272668884, -0.030016573511568917, 0.10010564934084987, 0.1095645241550522, 0.03331934111383691, 0.030998313709787388, -0.06710342986353462, -0.006752439136755148, 0.10361101645779683, -0.00419374227407936, -0.012406597321578956, -0.017710658908230707, -0.02383154776422053, 0.012726184524849592, -0.04574858090100854, 0.04033536544217065, 0.08621751078898615, 0.06397503815873054, 0.07553816076416806, 0.0453709256251107, -0.1404012111489432, 0.08692396504765497, -0.028591883815415726, 0.015863318573749185, -0.023871351527695713, -0.03183434308705344, -0.1476871485830072, -0.0224650735655974, -0.01220665824703422, -0.12625374619902907, 0.082697046245742, 0.051366882249447604, 0.04416620241175528, 0.09158671748014481, -0.008482388296255921, 0.10217695496498777, -0.04623693578295779, -0.046264362047448715, -0.07597553256767611, -0.023044414115018945, 0.0871094743804393, 0.20274774529536058, -0.0030608157486088487, -0.1491863905417346, 0.08038406722086823, -0.06547547746586896, 0.026753172527915738, -0.11268013343755852, -0.001540461731185111, 0.11982488170278142, -0.04892074221391749, 0.016646611324245136, 0.00885194714029337, 0.0005557325371486206, -0.015537649264334855, -0.01261536576403494, -0.042848350557145934, -0.08761455662698614, -0.03439230961088494, 0.0808023209868656, 0.04243420827674913, -0.040032318806371134, -0.006792955610501258, 0.1421974812268623, 0.10912374859484134, 0.11525541255976346, 0.007851326692633156, 0.04965880832552856, -0.03002979346593858, 0.01660761552026709, -0.001741200466724842, -0.01732456871125356, -0.04778280662643999, -0.04817869931414171, 0.029330148367657596, -0.018540233981785417, 0.05320203936381725, -0.063858831273011, 0.028024488323345705, -0.040385363159903945, 0.09679910395656835, -0.030501549055491017, 0.03749098790581581, 0.11420949483628025, 0.004114740345400069, -0.0033266727862930234, -0.018093196680520857, 0.12439218983307389, 0.03964403291738759, -0.029583321137963012, -0.06322805717033389, -0.02563710129121466, -0.0290046208560288, 0.11186466615821367, -0.04342409525948557, 0.131984037680626, 0.0822745470427545, 0.04513744914174558, 0.07146374106559766, 0.0698879431723345, 0.09339140428285153, 0.025865428447717043, -0.025946096119204023, -0.019077072471498747, 0.006648588431949403, -0.03292118361342011, 0.006045551453875397, -0.009587256721747435, 0.19021347169311356, 0.059486929480279116, -0.004027356997112436, -0.035396625209719285, -0.0228648209149103, 0.05304003984001041, 0.055982278053218974, -0.0402125644771252, 0.0010270665198531955, 0.04648867114198372, -0.03350166096828857, 0.05750302408610891, 0.017691998527926106, -0.06230319858572504, -0.09076887696539443, 0.05515596180367488, -0.0618164218093041, 0.0027890897842769704, 0.04976325215358343, -0.02207611555364399, 0.002347999662525004, -0.022038340921613785, 0.029399450701720942, -0.02558485272014179, 0.06592156708998595, -0.01792248738122947, 0.01619929655269923, 0.06597522489849049, -0.07876181948323142, 0.16162740121498642, 0.012603833556323246, 0.11159153397486457, -0.017810032327159057, -0.07721641783520715, -0.01000400009975954, -0.05386686971615663, -5.0706647172736664e-05, 0.08089220114750076, -0.15918033628665254, 0.044616815003801005, 0.024025131202424874, 0.11025103965874589, -0.01624194556545304, -0.001646581331907064, -0.02118250854376018, 0.002825607981542481, 0.014805828574732035, 0.05332758701507527, 0.06853917399432648, 0.026241154954644002, -0.057316376769330324, -0.05789943517361248, -0.04238843473248511, 0.14086552897018886, -0.04710716797309901, 0.004250607742937004, 0.0448405718842551, -0.10996606661575895, -0.014293338675143019, -0.003174416134287343, -0.017970474920415945, -0.1165617146990158, -0.0173362095087037, -0.019248139501711583, 0.009393631216322387, -0.06388778550834648, 0.0391245291213877, 0.03591004192449712, 0.046507197584782264, 0.0600170308138616, -0.12488057358666657, -0.04256301029646963, 0.05683744634188268, -0.1027097185727227, 0.05050116446743603, 0.010115066382060748, 0.1272715981739523, -0.07229017350120731, 0.04153868585323445, -0.06472781409955632, 0.009564738024223631, -0.029253166585600343, -0.02508339955214208, -0.05555402066936969, 0.09125130967590009, 0.01310006294539471, -0.005286133335399322, 0.033780914549329175, 0.09986761360616801, 0.05209369821454622, 0.08330785641198027, 0.037040916680510225, -0.05552324544626805, 0.04962757367206276, -0.024610216315854472, -0.10908339092982755, 0.06388615395296793, -0.05709177692545045, -0.14858603763846978, 0.07850722629869183, 0.03126589095222675, 0.12730916537732692, -0.041403060857593633, 0.03262356382659676, 0.04373994705283534, 0.007458863208687356, 0.10655235124957538, 0.10247490829180841, -0.022749670196512486, 0.04070374725513081, 0.013965929385843952], [-0.030406666597648468, 0.030191421042656503, -0.027370036378239607, -0.047663986590580604, -0.06634667730328422, 0.009310035656320385, -0.014699637894223684, -0.12642373393158512, -0.00969591781559443, 0.0019357298915262883, -0.022226110892555998, 0.02464743533637226, 0.08991374447170616, -0.07326835820903899, -0.0028939068021331, -0.07758431601846588, -0.031900316850837454, -0.053188353288743204, -0.03528661115989673, -0.07781583909169862, 0.11520958386194402, -0.020367585269908978, 0.06243055990731472, -0.06417501916151584, 0.06582097796756747, -0.015275531710232017, -0.011659503227867896, 0.05782597774180234, -0.04904927443880354, 0.008406319485074722, 0.1101811433600281, -0.021372225749691356, -0.15813001922230552, 0.1175526689216957, 0.06979974438017304, 0.013410262054157334, -0.0009498883382837283, -0.07187093501410118, 0.05720853740739453, 0.008552915627917535, 0.04514934624409719, 0.027577214462675106, 0.07544314327133583, -0.0018516478250911756, 0.10718230373905525, -0.09657897674888748, 0.028416292548509015, -0.017400541606899557, -0.018913865758659797, -0.09852354709865267, -0.02381078126513351, -0.04533093606775678, 0.09544777288164219, 0.06456435817822785, -0.047896610124696294, -0.10507597296256599, -0.117022938490175, -0.12590852519187776, 0.01275573377219508, -0.042851996992765304, -0.08659041140941966, 0.042739112268866265, 0.012617182396068783, -0.05055137335655233, 0.019519658083189093, -0.022758666068642262, 0.07449290794684146, 0.034685215305844924, -0.045364842730496145, -0.12690803906300716, -0.24616876591615974, 0.08395782062075839, -0.02353509530622537, -0.056140723155510074, 0.06722690514108573, -0.0022992760035636783, 0.01663496438166964, 0.11717492666711724, -0.09083832270887221, -0.10217233684115186, -0.025774084036531388, 0.02657622976537181, -0.024224507184576607, 0.05210498080730627, 0.002598824636318394, -0.09171224344930844, -0.11774067169541771, -0.04210698319414965, -0.08133155687938678, 0.058943368185896475, -0.04656516342497374, 0.01687590362297489, 0.08739201350535007, -0.013419260915606808, -0.044445256246902945, 0.048240207748271396, -0.0016231815989453718, -0.034498930329740767, 0.03241829389697512, 0.08839340829631519, 0.013811894420813915, -0.0337666148867009, -0.019797654097011196, -0.05102024029823406, 0.03634008087918806, 0.01398084645740735, 0.03981233845385709, -0.14101730324854164, -0.10212741104764188, -0.02416976324639747, -0.03799374402131282, -0.11821987122164149, -0.11675218624829958, 0.027208080672325056, 0.04961563356125029, -0.07027029504389366, 0.03350481468232019, 0.0327612763551767, -0.03365091354702751, 0.003382268024854466, 0.0073709078610078495, 0.08581014681739564, -0.04243786911256921, 0.07199977687316499, 0.06725143131723565, -0.09995787063363183, -0.021571134987914693, -0.06547778839758273, -0.021731416998988333, -0.05138033204181274, 0.05648773545536785, 0.05768566422904414, 0.06602184879765544, 0.0025260562164790903, -0.05688759817785297, 0.04685685506368637, 0.08430939895850352, -0.07477438690972675, -0.11653524126867591, -0.01879707586406605, 0.05705258206183859, -0.0602384886235421, 0.08754552555301483, 0.10266100308668467, 0.08243054092056762, -0.05827341086164861, 0.11241846217857801, -0.006914874638416475, 0.11927403447265196, -0.012598326509277124, -0.05254668744174576, -0.007575739806163405, 0.03179571652355844, 0.04376669998810448, 0.040241125846996746, 0.049917795426231135, -0.04625707456342028, 0.009879622656708602, -0.03575966945957485, -0.035077547245793796, -0.0003701598746579273, 0.06564817805920835, -0.0065188261555854336, 0.02293206525057817, 0.009296985449462548, -0.06666773143300106, 0.004199153871036687, -0.06200811542592027, -0.06333088123911844, -0.054862289108558955, -0.04434686607588991, -0.09210485985620125, 0.10743117210328022, -0.14771684379031966, 0.08126926286513461, -0.042910830028796663, -0.0011489612824340009, 0.1234684955189244, -0.15011430075429974, 0.047832669972002785, -0.09906309751887553, -0.05509823141486872, 0.015751675111378774, 0.036201302974986596, 0.05406269017324576, 0.010052543828156063, 0.04726331175759397, 0.13426816727408594, 0.1116280197697348, -0.04971247005957702, -0.09954877344403495, 0.043097869426303705, -0.07909021780234654, -0.03609381838960559, -0.07691420122110093, -0.17569454321550335, -0.07178929298767713, 0.12852702246875217, 0.03055167657180949, -0.0287089202747252, 0.04875654950026553, 0.010492204687781465, 0.10460006618413716, -0.06326259437228848, -0.029133678865691126, 0.013822253391306282, -0.0231923031529384, 0.10888346373788353, -0.004532565604894924, -0.10981709257540391, 0.05323773405634781, 0.00906050557270272, -0.0105853140982243, 0.05955988319940531, -0.046806415877976494, -0.0017842186176234586, 0.0878239762006005, -0.012053868564685202, 0.005925535462802598, 0.01959709659986747, -0.028183937557630198, 0.01161978294348269, -0.02315032700964642, 0.005726081377077107, 0.054368451336582316, 0.06586954081833792, -0.10284161397930332, 0.0996842877454525, 0.012514096103670649, -0.025565648117586097, -0.04148606082075728, 0.057219620775680914, -0.0018115023164073968, -0.1425396232075265, -0.16326456793270921, 0.011243667224274485, -0.011557977490641667, 0.045390130179093775, -0.034600175920051136, 0.026363055287039767, -0.07843582823096774, 0.09687236428317457, -0.056134528333240764, -0.005653020814075586, 0.01920588950837179, -0.008547093073903255, -0.0005828064071537142, 0.02953946467843565, -0.02430704015768944, -0.1972720912969196, -0.038634338346790836, 0.01484564663059979, 0.07979044703993689, 0.10398399098248981, -0.052288132473780495, 0.0034382241121941317], [-0.10907743957486125, -0.009126203067082145, 0.06071612043690088, 0.0022750954775531142, 0.07259791940290207, -0.07287875377019158, 0.08323565086133819, -0.08226776354729662, -0.03579596697319129, -0.03778041351247522, 0.003954048592869997, 0.03916880718279683, 0.05961437419544793, 0.06280346889456431, 0.06437558832151445, -0.011037097885561911, -0.0049286209119920685, 0.06361613259649779, 0.06010925793243921, 0.19616034195343762, 0.04880995684594784, 0.10382961280007426, -0.022482099052319945, 0.05972621624270595, 0.06250165865888857, -0.08302296167582425, -0.06125976131680217, -0.10912505787215124, 0.06988498311970395, -0.00584969451193759, -0.05168253254178784, -0.03560257392942866, 0.08049265861311886, 0.06473915633118546, 0.07028609389669008, -0.14259736469410642, -0.08508217621024253, -0.09591330062481809, -0.0009440975671292614, -0.005745110305866938, -0.04748180688365967, 0.019504560632310985, -0.045340074150726654, -0.07723979582509147, -0.07463264359678164, 0.03280477586696538, 0.04187861755330606, 0.07086666058152061, 0.08726160493044587, 0.004632620265511008, 0.06148667635577188, -0.007935457621154786, 0.01798611153008496, 0.024693517522662318, 0.05069896419640672, 0.030175875331674446, 0.014628866155410791, -0.03238848741869556, 0.08282726447504112, 0.05920653285100021, -0.04793630475259673, -0.10430834215563806, 0.10306899387940106, -0.013296576216124442, 0.018732030886379692, 0.03514331472957358, -0.02577383720153736, -0.03233432306661057, 0.08385089848933032, 0.02581220726604158, 0.03265027690210534, 0.07757482443888812, -0.0556985504045353, 0.05044669906216869, 0.07862677106292476, -0.07613348072189678, 0.005480114570155373, 0.03365376536185867, 0.021844021735379433, 0.04129455053327073, 0.025411026214807775, -0.04304027021711145, -0.1441324640390104, 0.03001001329020037, -0.058442130023723386, 0.022059161907211917, -0.12221188228154906, -0.04044474965342002, 0.07898097193585221, -0.04692900459990961, 0.08917237218754388, -0.1460197449868301, 0.04434085601928779, -0.03596232358759635, 0.030780836666332016, -0.0910767692064183, -0.1517418264298329, -0.06463330989541032, -0.121201032222644, -0.07315520387405776, -0.03751935985336598, -0.018227314821881602, -0.009396226982445003, -0.01980073703522794, -0.03060136850771185, -0.06801129118586849, 0.044159436662568614, -0.10931667037778432, 0.006466404692455752, -0.1485839359060634, 0.03354918774736061, -0.06451200007143552, -0.10512953245900712, -0.11422709718042974, 0.09285140293617358, 0.012520114789874371, 0.05917390377235618, 0.01919649312666239, 0.16105627957434113, 0.005687366762777558, -0.013346568592808996, -0.05510375779899334, -0.05432833608293386, -0.11959921462695161, -0.010748024880395132, 0.10980391749406625, 0.016117199514919193, -0.0011555667470619722, -0.027706417675375853, -0.0212329868686488, 0.0517076608777526, -0.016769333320332223, -0.04655838332930369, -0.09108158075402457, -0.03392929409718718, -0.006129996768880318, 0.005222447990194802, -0.0598774920053476, -0.11089739336469452, 0.018955758994168088, -0.0329294861602302, -0.05894580539045655, -0.035597202140190826, -0.14111255499374248, -0.05956459044507813, 0.008385912541836881, -0.03681798285415364, -0.038624460680953016, 0.03205724493709929, -0.04406191047874548, -0.04171987622853619, -0.008162817515250359, -0.03995969016704018, -0.004249830440962007, -0.050874353209708255, -0.11928133004188708, -0.027742270836880203, -0.0014830058066709713, 0.09784698886061692, 0.087283805018058, 0.08591417431099428, 0.00850907058046125, 0.0547657327462283, 0.046039652028715655, 0.15145025275851565, -0.0681414307508767, 0.055577998431376015, 0.035322766034401716, -0.04867136898591481, -0.03961252094207372, -0.08760988071041285, 0.09210540056461229, -0.013624107581262826, -0.025083176831889292, -0.04903585662357582, 0.12090498363802073, -0.017793183898349108, 0.01866874329239913, 0.01445714872693913, 0.181571789706946, -0.029852599980165873, -0.009785682873357487, -0.08807165843053323, -0.015457507171952505, 0.13184024111805093, 0.07836847405663455, -0.02504471822911012, 0.09242961882529141, 0.007073628282258557, 0.06649525871912174, -0.08097146195824273, 0.029590932893672827, -0.11328029779092245, -0.0024773009577100263, 0.10519915735200572, 0.015111555020225868, 0.16905974073944624, -0.11614201954836274, 0.04137698750195026, 0.028544233478760766, 0.06349634541336736, -0.012538303835178666, 0.018684217755264694, 0.011978352012799823, -0.1104331558087936, 0.010996773399883262, -0.029827793513361248, 0.017417195243651193, 0.004783132953307956, -0.025866392306084198, 0.09815311902768276, 0.013687334085795814, 0.07305153884453748, 0.03180877664368475, 0.026660786509844527, 0.09428019989614571, 0.013421009858225058, 0.16961109911286312, -0.05714689224721197, 0.01175838923040931, -0.02252647111952591, 0.004374375017333683, 0.07482314204783751, 0.0998015532127056, 0.03584031735287838, 0.08477289178803157, -0.037031992234255635, 0.04039447048372908, -0.03324714215360703, 0.005515594831895923, -0.1259764441134114, -0.06943580776833669, -0.03379782874892111, -0.06670840872456894, 0.04469336429028476, 0.0004209371005753577, 0.07282582284732272, 0.12580047472822153, 0.019809429560222705, 0.011742772421008338, 0.0286582860968061, 0.029810877503918743, 0.08160430348642184, -0.022357753952323124, -0.0021742757995236155, -0.03956986198490298, -0.04215893432208645, -0.0458187477731038, -0.0510745672748694, 0.08343011751647088, -0.09448878560992274, 0.060052108628739505, -0.009616663639117813, 0.009533741119494727, -0.013508061307451856, -0.09471414595560639], [0.014232916348949817, -0.035693195295956104, 0.09500198470456771, 0.08648095749316775, 0.0449052773150738, 0.01647759040622884, -0.07438810760502494, 0.05210820638591759, -0.08053803819763887, -0.004265653288551585, 0.08802152714087386, 0.01947278162351554, 0.05477548600777013, -0.02095465553678983, -0.027569504454786023, 0.056531336041337664, 0.11931195261923949, -0.14411469218239506, -0.03541853783743391, 0.00898420124989824, 0.05929932150481358, 0.01239796474639604, 0.013683287048970821, 0.003843430621144331, -0.0381145446701497, -0.09435502495690336, 0.10598748468752942, -0.0017354245867080272, 0.02447131865854651, 0.03477933635577151, -0.14762745510654626, -0.11197432159413914, -0.03597573609267501, 0.05350770222146305, -0.15003407396146573, -0.0015424374448186886, -0.0021766673027401027, -0.03754796683624661, 0.06212881347121886, 0.02558019527436617, 0.11127436214785034, 0.10977709871846487, -0.024916141613876053, 0.11192905886402969, 0.03528451833618951, 0.07855176793021407, -0.01942235768223901, -0.10662570460624837, -0.025430027520285007, 0.006828369684772401, 0.027161161116710124, 0.060404354790167, -0.18562053245772783, -0.07622122286014794, 0.011995512719154812, -0.05618502951333251, 0.08780385910105613, -0.036658095846575915, 0.07860634117150278, -0.07650278255314695, -0.053926712898441295, -0.004350946562132407, 0.05138899317720811, 0.006888944931976599, -0.24602629318124436, -0.09826685379005386, -0.015146965425565283, 0.015269472337296273, 0.02547814536831202, 0.05930678156177085, -0.05906133890596723, 0.05439700818220726, -0.08986020308366643, -0.047204311574673495, -0.08902455111415246, -0.05279074769291241, -0.00523041786995061, 0.04267641383842642, 0.07644389257401907, 0.12144724664982037, 0.10204625644781637, -0.12879944907415913, 0.004240982162077524, 0.03922375059461299, -0.1718919318789618, 0.005303398763903161, 0.025606329987849744, 0.0017833412534250252, -0.05690942493973858, -0.10704408512041394, -0.12693511517618844, -0.01919644960818666, -0.068916207900365, 0.09385976295696749, -0.05121351828949404, 0.04139756518465074, -0.0039616593898348165, 0.05312636423870443, -0.03792430634714924, -0.08688076620541231, -0.026646184770275208, 0.00978926364345527, 0.051234934235305694, -0.0034406953139929654, 0.03816717774175435, -0.0421429206365939, -0.04448219159687111, 0.09466761542860008, -0.1325648846611478, 0.0932600496709231, -0.1398602625615654, -0.02497911204814148, -0.02721032098220537, -0.07047601633884559, -0.09782744550478308, -0.06102046892748435, -0.09190134210326877, 0.08809529208758678, 0.12058511112776109, 0.04297906188705014, 0.028159153703574673, -0.003226936380537584, 0.06723340066380043, 0.0218175576247233, -0.03657433308073363, -0.007231381016552733, 0.03353011920700003, -0.048773691491188806, 0.009625942070154263, -0.08812863460288535, 0.005092627871090855, 0.004688503187466429, -0.03148171206360038, 0.07235798611310962, 0.10676492278030403, -0.053334249736417205, -0.09632408672654218, -0.04535331697161713, 0.12781805701692647, 0.05708669642522296, -0.06509592275302616, 0.06829742973175038, -0.010080771042420358, 0.15950623044796836, 0.039372607630924664, -0.09140382655147414, -0.03467649283252951, -0.058563329544465574, -0.0035259304822619774, 0.039574879516696, -0.06605402937857838, -0.06110700105016456, 0.07003973536919215, -0.0461465294665855, 0.0690121549829475, 0.09425137434499359, 0.005549975590887201, 0.02594149997486946, 0.02661332591150048, 0.0548828040709711, -0.054338056214422135, -0.005355067329526428, -0.12407672309329533, 0.13528195089158196, -0.025712068937744907, 0.04230299075747315, 0.00974733772600165, -0.012345958293355015, 0.005945441852722541, -0.030307902520364798, 0.03600427547047437, -0.009944597701143603, 0.1282408450334027, 0.023190876149637364, 0.08331865297151132, -0.08893672801251457, -0.08073885209429355, -0.07936587514831166, -0.04060056626140946, -0.03747824043169823, -0.02732303905879355, -0.06979460482289293, 0.08711679060875517, 0.03900576771512295, 0.058335463235570935, 0.045249223440836324, -0.001356951316521101, 0.12713568210235793, 0.0786485101716592, 0.04031249307227537, -0.017249613263270118, 0.017371178466333702, -0.037677888031559824, 0.0010670585444703452, -0.02965295393890952, -0.025381831152725378, -0.13702171518707743, -0.03320909570477547, -0.019274789571270518, 0.014909820794517144, 0.12025839023816397, -0.02039524247284263, -0.022912083724901566, 0.0723354989828066, -0.038410058874704715, -0.0031770389082347505, 0.0073019242355348195, -0.006124621493687734, -0.09703917600825025, -0.02176133025916257, -0.0045467115411082035, -0.005591448509399479, -0.006265136172351342, -0.07937423343430249, 0.12515061682668124, 0.006731500712114258, -0.09777892551164331, -0.03272217538213322, 0.08444505853467142, 0.03643651687000629, 0.030834458062424373, 0.0056421406805157535, 0.050540644566413155, -0.056305870904822135, 0.03289528722259969, 0.0774083089558571, 0.0389455739702447, 0.11015569454898348, 0.0012306434783953659, -0.03253766194038389, -0.048614614080108115, 0.0880661280420681, 0.044700910768831585, -0.08054796050182217, -0.0032315199626117798, 0.05564019180184641, -0.04462986295842883, 0.06819169186380275, 0.09978391213819755, 0.018099529244319252, -0.033573383581967334, -0.21722143669580435, -0.01244498101878681, 0.06149318333786928, -0.04727687809248185, 0.006807918714695707, -0.038158073815286596, -0.0852624926788143, -0.03608669653396779, 0.02892751501779056, 0.011894383213857392, -0.01210101098929588, -0.05043816653544311, -0.0022226495236180852, -0.032063159464387314, -0.08498171597089282], [-0.03152535056898726, -0.05251575619157813, -0.05755889847197899, 0.04841261996353141, -0.004277100697288147, 0.049602913408270374, 0.01275447817332135, -0.012517177126408298, -0.02442684889860391, -0.0029266155785708002, -0.07286630065602542, 0.01591198884333173, -0.05168180037705831, -0.0534806632050916, 0.0183014223050526, 0.010680931836348452, -0.04397514781791978, -0.10790621360364315, -0.07681849862112468, -0.024347104880781734, -0.06249128048311092, -0.017491474389041826, -0.008637373696242588, 0.08336490432016797, -0.03554365857838682, -0.09405375342035305, -0.07524792974792117, -0.10301355352106423, -0.016924035562131994, 0.031410375189295736, 0.06603346606064013, -0.015348068194286562, -0.025396689204370458, 0.03940641932373214, -0.0888770229177601, -0.04550872526089408, 0.061829856214101565, 0.028770698874987018, -0.0028790421240220214, -0.04387550324224846, 0.027811208977550468, 0.0979719447964603, 0.0463327650297602, -0.04481169447884747, -0.027926729059020258, 0.07413229746712374, -0.03270722006745756, -0.08659773701546945, -0.017945965824339858, 0.06889051681985474, 0.10902020265040326, -0.025648375327753537, -0.011262756043575163, 0.038722792548683944, 0.019938492965167334, -0.06273325851702569, -0.05555154421772738, 0.059391698184377714, -0.022671235127990588, -0.11706287715291283, -0.01854386356861203, 0.08942885531795655, 0.04450642203763085, 0.11288883259825155, -0.06188422435340241, -0.013876458248226742, 0.07695134375684021, 0.03496389749697855, 0.023888988947083797, -0.03876253346908361, 0.07070034312075507, -0.07613423185420667, 0.0651432462084107, -0.01750949203357345, -0.07536703128376317, -0.03573323377256013, 0.1583356819179625, -0.05239832597487615, 0.04272714785175628, 0.04324086448853788, -0.0019597389321797483, 0.012343822265980955, 0.002409365577515612, 0.06330132071572682, 0.1041481769231987, 0.08299347482561882, -0.1167631705245407, -0.007141102448168773, -0.18331086616006176, -0.15927672228142567, 0.0024352931248833817, -0.16767853890927092, -0.014757537237159404, -0.017621295013784677, 0.01851919711850901, 0.06964698602297234, 0.027860613771071248, 0.05286205298620649, -0.006824410773481597, -0.03590844472962266, -0.03234393550484022, 0.06706017632150722, -0.017260515105642905, 0.18752774615640633, 0.13467416503992893, 0.0233109143652048, -0.07271943962296488, 0.049290228403541116, 0.04757519244572644, 0.11179978388291247, -0.010273005794878875, -0.02629155027847177, -0.13843864314886464, -0.08242332684541478, 0.11856472106992924, 0.02996384206580386, 0.005165646142047512, 0.005083800126591421, -0.01945474471965172, -0.1059959138151076, -0.04086043255098586, -0.08396133372621019, -0.1191085711918408, 0.09766064873048037, 6.9998567992979525e-06, 0.030046255301696138, -0.01706271146045198, 0.04153142233619876, -0.148711819957894, 0.0359233673680016, 0.09839180644462013, 0.042367254846783345, 0.059402340711408305, -0.003798317641126635, 0.05337984829770806, -0.08275054225628553, -0.019496706026259063, 0.013704022633956163, -0.0028381664214291807, -0.04617058303159474, 0.0949665990591501, -0.03919854699460941, 0.005677317815467292, 0.07284790571944823, 0.04237170416626991, 0.10250134085625316, 0.031007931186661564, -0.07931551738419654, 0.047748081997789564, 0.1357435383231188, -0.10040530825161227, 0.01330176076361851, -0.006184466112890888, 0.04758186322978583, -0.022524252031862944, -0.0543505172210411, -0.0683365379088206, -0.08740769139756889, -0.10156038240577454, 0.06289568729872844, 0.011299298213349922, 0.1027328330600876, -0.09722954376066074, -0.09420654807898841, -0.05725216207254952, -0.025638378553205103, -0.0854520449942135, -0.04726445634314669, 0.05916197370310177, 0.048385507559716816, -0.12919601632490038, -0.020907646225697497, -0.09182346432105185, 0.14023851247461794, -0.054648079801838084, -0.008648083658352557, 0.03135506163109758, 0.008314283554410374, -0.14417789882426704, -0.0685240243088282, -0.05840901904576246, 0.14304431623238553, 0.03427452153451683, 0.003269072646142641, -0.15278183173631915, 0.015642024271892728, -0.06549014448997496, 0.021139949153194282, -0.1256433855403744, 0.1482923851583774, 0.07905591603893333, 0.0014798865146289693, 0.15166994149205282, 0.08292959521083232, -0.02947504635193483, 0.03307965966339781, 0.03944058125308062, -0.04762646767567738, 0.08629258502043972, 0.06454071644041737, 0.005061595586047244, 0.05397984972226309, 0.07239974855400101, 0.09824119916330405, 0.009644339255190173, -0.030722926644638625, 0.029162570307500354, -0.07812496022529057, 0.030538613272954963, -0.041709416518333625, 0.06301575863001879, -0.0020738045551522647, -0.020783099141657598, -0.04715865386408224, -0.023146528376553545, -0.09654380257367781, 0.08313661195795526, -0.004204359091817831, -0.042974708954080246, -0.06316792734578676, -0.03479452982039102, 0.012011248474869313, 0.030364839518754166, -0.05596779413353882, -0.031981197419103685, -0.038958989629562214, 0.08534891177711126, -0.02028271964235224, 0.02886308059433272, 0.0890288299290593, -0.05089896573522291, 0.05201569238104014, 0.02683997170271513, 0.011394145105370977, -0.01149115169464465, 0.06700220851604216, 0.04032633090071277, -0.02783909940262653, 0.07608058649862062, -0.12066596613885865, 0.049069980014179164, 0.0932768741085379, 0.11221395841604566, -0.021977375461713973, -0.03469216828318459, -0.03322750627807996, 0.05753027911834261, 0.09910272443667675, 0.05197423095331851, 0.1998218367717135, 0.008992732639490485, -0.016785624561679074, 0.07439653448296629, 0.06858360866796209, 0.08885052631045279, -0.0686585502619837], [0.035247597564227406, 0.14894125934541558, -0.03963107770983369, 0.06595010086504631, 0.08277276128672079, 0.04753531551906215, -0.017054383263072997, -0.016730396621172237, 0.03021643300287859, 0.09304309369134563, -0.05568630398368052, 0.00999046830537825, -0.01692087044944027, 0.10974995538975486, -0.06081590258383364, 0.06693080399261538, -0.016377736101881618, 0.023437215039237177, -0.023414063022251866, 0.09005936768536382, -0.04110441590482192, 0.006608756778624983, 0.09971158227528572, -0.12722218887654707, -0.10384416416397016, -0.03306965050521882, 0.006679377068115605, 0.12526376542485804, -0.04751191848953116, 0.0030195652821209873, -0.05457599129739404, 0.03388265765272149, -0.012508207256663986, 0.052430812913057914, -0.10307590732765945, 0.034975409191943835, 0.03166354379403671, -0.00552036407480985, -0.021578109565737025, -0.07564041137864916, 0.10295338714642595, 0.13817179904181418, 0.034881273482422114, 0.006334813620184395, -0.13917072356152085, -0.01858554925254262, -0.006789722424804208, 0.00040299368842598796, -0.01159405390448193, 0.010603373854867523, -0.11799094731733299, 0.0010301214532824907, -0.07520623902087642, 0.07005291088521207, 0.10719138065837835, 0.09555120222038098, -0.004756747344651258, 0.016564912343166902, -0.04397120473498784, -0.026369432194710555, -0.013503767536718194, -0.1747667754760079, 0.06787786952884374, 0.05334012784725491, 0.08137698418510735, 0.12923099953018305, -0.10514978419378887, 0.07686805197676376, -0.029778832295830344, -0.04608134825722087, -0.05566953892868182, 0.1454676715549694, -0.03349335344055367, -0.009227671900175429, 0.03036154200189041, -0.11278086779832214, 0.024806787304480757, -0.12834491704170514, 0.003510910050203963, -0.1009808212353784, 0.09170538946537003, -0.07455620567712229, 0.016979409624249923, -0.2036871537931512, -0.15876811961266266, -0.007744222864041821, 0.02736955585401949, -0.015232110129013434, -0.029140052000746812, 0.14469033547939567, -0.011676705387137968, -0.024809367155654696, 0.03278561429365624, -0.16940607476411668, -0.014819144223523394, 0.08322760553231888, -0.028931365175517715, -0.02390126366018497, -0.0481997601003981, 0.04396069963306688, 0.07563025916664995, 0.058457353986156535, -0.032483817918511376, 0.07482853187295088, -0.0904074474440347, -0.004536040278234859, -0.00586467095019207, 0.09766789634619133, -0.010327115847873176, -0.0061614098029383205, 0.07016734409440294, -0.05377881192087336, -0.008989318820642526, 0.15910279950474857, -0.17377936075418407, 0.02521657354597713, -0.0696796316684725, -0.07416569358043189, 0.08369014216226894, -0.03844149490650747, 0.05522846290453108, 0.08325659704187759, -0.046415569381729686, 0.059094971047452406, 0.05869220640207232, 0.04195920562012435, -0.08311154967827329, -0.03158258707178884, -0.014988922875741327, -0.0030724125606400067, -0.028755756729706577, 0.07792796671458428, 0.013772630574121062, 0.021905473657718458, 0.049081372394727214, -0.09990911989075657, -0.015335537839248676, -0.07607319808211187, -0.0651087061885917, 0.03886678375524434, 0.034546255915477386, -0.04446228758014658, 0.0009575041385757575, -0.10702285375181035, 0.029945065857998155, -0.14799585721363714, 0.10939024352645449, 0.07352215062222114, -0.06607185006731751, -0.0035315673009433087, 0.06969413813665087, -0.09108431000604958, -0.05517553759360528, -0.043080414048923175, 0.027549007342487553, 0.10170152871923857, 0.14353985088935015, 0.001365360732367057, -0.018253251074048304, -0.14061341822086385, 0.013786046062999342, 0.016248320083632056, -0.020163559042924543, 0.0035306561442567026, -0.004288334585277015, -0.058462892998335445, 0.01647468518575189, -0.04548585830226462, -0.09201501319892541, 0.05353896798004056, -0.08154166067528368, 0.014550131012463302, 0.01206198752056383, 0.01248586700756544, -0.004172772072961616, 0.08559740978933199, -0.06442443368114419, 0.03134435080224719, -0.02586770858402332, 0.026181080290674036, -0.03169033701633398, 0.007915744650338079, 0.0880735885334127, 0.1159803741809767, 0.002628031014034684, 0.08560280845502183, 0.04521782760128453, 0.03176811481115915, -0.04321433174455291, 0.0628213561617064, 0.03289794229666699, -0.06283453103234146, -0.016436494777744743, 0.17021850622815432, 0.01652745977234253, -0.05072264452839317, -0.02131653364909094, -0.0593097186664311, -0.04286991894216864, -0.020071177375731095, -0.07235648205618989, -0.02820755954517143, -0.045990080161411886, -0.021684826478777074, -0.11167577392313124, -0.08948054651605733, 0.06528592176829513, 0.1317240564681223, 0.03067115182670664, -0.06055976531072976, 0.0037670272772334238, 0.06660228271167867, -0.00853081008411437, 0.03759570302809085, 0.05002942084809283, 0.08703544410102862, -0.07942555926246331, -0.04173903001425261, -0.05458990526145982, -0.05656476184896264, 0.16716256053922574, 0.03799086643282628, -0.11596851704694686, 0.07223677352834529, 0.0564199331540919, -0.12259567607595617, -0.043440290586924564, -0.05735200508451243, 0.01078006644702596, 0.13086053988257804, 0.009171176912021437, 0.01218569423037567, -0.011915985951798653, -0.0519665417870979, -0.008478783759546773, -0.004597393431030659, -0.06055067558870687, 0.13738643298412215, 0.00899739363639747, 0.16735695508529386, 0.02291992686788649, -0.09058849769611721, -0.1134714483547731, -0.055221140160149514, 0.058103548458565815, 0.009924016934700195, -0.02861976228683741, 0.04792757624274104, -0.05672454018942726, 0.08773329157374665, 0.16255283255317068, 0.09538661224758359, -0.0332028276305539, 0.004182830233435366, 0.03676579743169191, -0.024187744644923587], [-0.00614255611471315, -0.07431495836742123, 0.03224385802726568, -0.10125515785433686, 0.11698791763553106, 0.007541137644339187, 0.13963333364818492, 0.08199186617653657, 0.04124061492458026, -0.06666868982969683, 0.04011584255087347, -0.045842572285005136, -0.0507126789952822, -0.10915046338498541, 0.048664314977716644, -0.12260870942876059, -0.14445388676878798, 0.02090234527592108, -0.05366511281038781, 0.12939086200704508, -0.13510801298903458, -0.016595710182396327, 0.06529425319313911, -0.05352044571901865, -0.062354426326534415, 0.08415510907576837, 0.11794729472396437, 0.08881110520549541, 0.02110607454856561, -0.038190223555702056, -0.004897553952098308, 0.09104098153651012, 0.02029044433488199, 0.03839666779283531, 0.013530511297075916, 0.03651414282733886, 0.0434389011822988, -0.1277779989309084, -0.019629018384785753, -0.10608722920621826, -0.09254813613190555, -0.13427561758852685, -0.14193343468309622, 0.011919268031157934, 0.11146227782056047, 0.045649918239967696, -0.005452346976690128, 0.03523267224538038, 0.05126604533928528, -0.11600293140000432, -0.08780896308257584, -0.08474045110388964, -0.03204769791226021, 0.1663041818003608, -0.036833171147761336, 0.045101982129560396, 0.056761285704129465, 0.004461105908421441, -0.07007889982219755, 0.1331474177280222, 0.025181473401689407, -0.0733634425710183, -0.0008900549214417021, -0.026138535895525637, -0.034957529419281416, 0.012906090364738413, -0.08606451015179888, 0.010074100212869828, 0.02787765595236484, -0.04141471892335985, 0.017965432887607335, -0.03960041025734392, -0.09911374840695944, 0.028520052236468724, 0.0643287518899231, -0.16928014711056796, 0.12152599711032008, -0.09034911001057302, -0.0531173012356209, 0.06044610078910603, 0.025530877268632252, -0.023673955523874562, 0.10415801056015767, -0.02123037393532262, 0.0021612140639366314, 0.01725147867811343, 0.07896369651322334, 0.010066848056659803, 0.10234053409061075, 0.12218232953211935, -0.04180475596812583, -0.043189250092177126, 0.026744901954940815, -0.009500027363727776, 0.03138872441029716, 0.014979916850633612, -0.009215982148043594, -0.05159376871139383, 0.10033948114683616, -0.03057077654870876, 0.033522487974012624, -0.0033037890043178123, -0.05435617390829001, 0.020923886145877552, -0.05654024071644402, 0.01869899348089219, 0.05599374842061688, 0.09592196166478215, 0.1439401180168683, -0.07602089979637142, 0.039220971116792964, 0.1216175856192644, 0.0003729424479790256, -0.027916775439231992, 0.018793205693134772, 0.037006932610343435, -0.010194240370827282, -0.03286446061467647, 0.02367704896656065, -0.004093525652089163, 0.06598188843578202, 0.003345991326523634, -0.04753509635988453, 0.08052038527796104, -0.005997654583381959, 0.011654720847095868, 0.07604712246094755, 0.06764975459245356, 0.11419000979666766, 0.028638137956763395, -0.019170143716763365, -0.02875568844298538, 0.06484023569783898, -0.06884227188934285, 0.06480208426495027, 0.0545457526614914, -0.1275057607403388, -0.03320903443905942, 0.023828063477698988, -0.0489776026521788, 0.17175587151835997, -0.0022544356155868007, 0.08270158078651978, 0.045806562702803824, -0.07092546581784359, -0.00032879237751298106, 0.049665710428187966, 0.06168960535695613, 0.03535274639928673, -0.10706921570395762, 0.025000716312818017, 0.009272189144633434, -0.1350670544107915, -0.02147173012368389, -0.02986318305582799, 0.023709099295207932, 0.07988932799512824, 0.03763132436785657, 0.08905765151920071, 0.052364834612871516, 0.03193577450170644, 0.06482776425728787, 0.015620585084062484, 0.026622909353303092, 0.02359272185905431, -0.050050384194324705, 0.03921046346786666, -0.1075630954591107, -0.03487579031905448, -0.08110654976689995, -0.14156779938356187, 0.0642136078911387, -0.011777737016297498, -0.006126684108718383, 0.05869489162560031, 0.08113877397821305, -0.003194602561076054, -0.13733987779249887, 0.023271241217150282, 0.02543929999080735, 0.04420344601943563, -0.07706180402454572, 0.06877894462573637, -0.16387416653680054, -0.07614289849351444, 0.0003106150349853707, 0.0588948358115125, 0.17452367394566307, 0.012918966198378701, 0.2033689916368832, -0.03250701794235981, -0.06138679381634631, 0.019535137052617148, -0.014661927292959976, 0.07169742784376797, 0.049597247435175525, 0.05503129013028015, -0.05625734970274954, 0.04259755842983337, 0.07560111847099044, -0.005662199211298932, 0.053954844809652874, -0.08999528752083459, -0.026367210326837646, -0.09578430093775471, -0.10308909945520739, -0.028314017646024623, -0.07016795565123919, 0.03861976925611549, 0.12091429307236314, 0.06917314169805451, 0.004312610423724704, 0.015095968442576905, -0.0030717519938320646, 0.1401745770916625, -0.1573678867606462, 0.0465067345676525, -0.015981445937271587, 0.11314282085148158, -0.054945881749095, -0.11579325750209947, -0.07882670758817531, -0.008346883727645676, -0.02854968987634171, 0.08459257596911612, 0.13358033113329482, -0.02228921898942482, 0.010102534783363617, -2.2030904443183112e-05, 0.010197683205573474, 0.0833819532763555, 0.01122831308845453, 0.09222348129031328, 0.05634089926222041, -0.06406326579801733, -0.09055762381692943, -0.1478079923843152, -0.03408487757371609, -0.08145243027170554, -0.013265812461129615, 0.035267535640742906, 0.015557306195558604, -0.04705702944687219, 0.0906111991067431, -0.10326167421372248, -0.04781053462001298, -0.0073797433497634485, 0.04501839833267118, -0.03513363792130817, 0.13165462098707648, 0.04684884126414024, 0.053837847877321356, 0.06532447109731535, 0.012282744890317648, -0.03537342179301974, 0.0618605445924449], [0.022039078825143846, 0.008000708632422315, 0.0753891175611422, 0.059694154314651186, -0.0728069805742552, -0.0767233888348904, 0.018515816244673373, -0.04909817623702365, 0.03327102324030803, -0.05386870596779706, 0.0167172325991666, 0.013297047050770096, -0.08819207817027043, 0.008115041610412656, -0.0622624242977278, -0.010658640750764689, 0.12851533870514403, -0.012611118307216486, 0.1213736528879259, 0.022825554526331403, 0.013133095450066705, -0.04463335514864763, -0.0031257021185591614, 0.0587378504244671, 0.020154071165829502, 0.054208330385079634, 0.02145210256296363, -0.05179322595204304, 0.0003387251154692739, -0.03300118480137536, -0.03492865852992869, 0.06937754876192102, 0.04659543044775619, -0.07823010385366644, -0.02652907284989578, 0.07359367243140265, 0.030200487429163668, 0.08100741123000317, -0.013967469825051874, -0.061379856963312725, 0.05259802566172063, -0.064970934997725, -0.02294425141734971, -0.06352370113772673, 0.04921748474550651, 0.009429156145123874, 0.0485300053182648, 0.009896651440767828, 0.07045737237687956, -0.013399095002672322, -0.10968704699806338, -0.11202549812981256, -0.025763315519363297, -0.10966162420850284, -0.0375796399671783, -0.0413109126929354, 0.02444096134572261, 0.12846581390390993, 0.024323520247017914, 0.09850535263031733, 0.03262012541583197, -0.0041881687400331085, -0.004772679115955452, 0.003387105018868121, 0.025755414278655152, 0.10880169457448367, -0.16940501002713693, 0.02907055910819878, 0.10740024408646684, -0.08545580334399007, -0.02131383207091493, -0.01740007263741281, -0.01702150603065005, -0.019743349186694247, -0.07521932984466334, 0.02359066513568648, 0.009059739894924583, 0.017312537324984487, 0.15290010298561488, 0.03602845945176104, 0.06962837456675904, 0.013755565601750125, -0.05102971582795965, 0.022671474388076828, 0.050965409245186166, -0.11137621269781067, -0.06410252909177037, 0.07345921474140425, -0.10346270573646096, -0.024805104235527578, -0.10399324181452645, -0.05092882337905653, 0.1351596457821327, 0.01429843396046539, 0.07288496608578912, 0.2013264103480379, -0.017186604472202646, -0.12666464743037645, 0.15288125466041805, 0.07140097189703942, 0.04556487168914566, 0.08637133237107376, 0.08885919099415333, 0.15675809130381857, 0.10394309911140502, 0.0747606972514782, -0.016649755469873802, -0.022893388147952165, -0.00589247157011985, -0.015643527955984154, -0.06425406958575397, -0.020564251981908963, 0.1440322531539117, 0.031709985856696245, -0.012599387251552489, 0.07237615218318653, 0.10672337714137325, 0.03486117896990468, -0.06791942409249033, 0.0909147346267656, -0.07242699222980827, -0.027207538461588368, -0.022297593698361557, 0.017243396890162823, 0.006465009047189275, 0.02021093235833152, 0.03270331870645575, -0.14049640226905077, -0.10530736260515687, 0.129692591305031, 0.127941414276641, 0.0069815942963437705, -0.033278484230685086, 0.036433571929718224, 0.042347074141171004, -0.031055617812538572, -0.0650182357944413, -0.04559919284130347, -0.07067679803647224, 0.11228343623624538, 0.08103208892919221, 0.041092126521602254, -0.013378342856876576, -0.011417305515233095, -0.056755809819167675, 0.11894723558905586, -0.01878088514121301, 0.007246410416758265, -0.058794511112290296, 0.11488027321722699, -0.01923718981572186, -0.041150763269563066, -0.028270043855615594, -0.0724661928500769, 0.047354315421128584, 0.061470029070254145, -0.08277405924900039, -0.04468425976963098, 0.058091947698703086, 0.009688878156440619, -0.0755526718142723, 0.007041806497903099, 0.07301831219172247, -0.021896467402710347, -0.007563048989151877, 0.0037321958413997795, 0.003629936258080112, -0.0343872631723364, 0.11751501731973792, -0.10867934909106576, 0.09023609552327634, -0.040350135525832734, 0.005575273492780801, 0.059527664671525815, -0.09837251227359535, -0.05406365062312327, 0.06812909545329583, 0.0719082329113578, 0.04702949275902817, 0.06864533920453686, -0.10222976184387976, -0.03822620661401426, 0.0008882578528015906, -0.03714997727699364, 0.10968626611385811, -0.012441150287114367, -0.08744670486690659, 0.03225996688078982, 0.04461294037102476, 0.06395082676629488, 0.03689963789978405, 0.035358750534296775, 0.06495752629193281, 0.011918845171851574, 0.00982561069579088, 0.03171855643907736, -0.06359637138900902, 0.004914927752347673, 0.15436027690699836, 0.1676715170020506, 0.061057345355782125, -0.0648698313050841, 0.08145777907221965, -0.017796346907941234, 0.04939685497354043, 0.13475679187615053, 0.07282089993372838, -0.06826865207363716, 0.04253385477448026, -0.06802466802725769, 0.03766913160907175, -0.07742501995456098, -0.07255138068834449, -0.0048865992235192415, -0.05191885564680008, 0.0750425742865131, -0.08767059371751872, 0.061888517634774654, -0.004764877858675434, -0.1160045975716266, 0.06825050388264048, 0.031145666369539294, 0.04280744421739469, -0.09618795690349458, -0.12312344053811854, -0.03604408778975079, -0.057050025436931204, -0.08558261551234786, -0.1343840346834346, 0.08512982146811882, 0.05956332058259617, 0.05270397010043073, -0.010642777021276209, 0.09784586880231894, 0.10997950766204835, 0.1706983078785914, -0.06190715370785926, 0.07521596646715163, 0.0682209580721744, -0.018199692194776157, 0.031436211023865214, -0.08694470533705284, -0.039853761668567626, -0.14770256034943552, -0.01382958404985376, 0.0847436064093823, 0.0819440355480675, 0.01669091389841037, 0.028622076910164513, -0.12364114509755078, -0.10910453791694828, 0.004007971533793187, -0.009023965924280144, 0.20387961107655028, -0.01000940644301315, 0.0028806787736157884], [-0.0292996602228257, 0.07625329532326296, 0.05391266492049735, -0.003116111454304611, -0.04134295429015392, -0.04215343478114116, 0.05371178954012485, -0.07847387915982848, -0.09930353144448212, 0.05300972449864948, 0.0007370438805543927, 0.029723705898178694, 0.10457073496884016, 0.0063712375788748336, -0.13077118023089176, -0.004524364815420511, 0.11131251658943306, -0.06736305003160872, -0.09849545919021044, -0.043934193147792365, -0.07387415755530229, 0.16714515560821522, -0.0315549791197843, 0.013358551408419569, 0.028023405345814774, 0.1273787806017581, -0.2120225086509942, -0.11262719879935018, -0.09873954299590836, -0.009297128732185751, -0.06532697161442062, -0.09321727810955208, 0.056812828210598285, 0.009829461513288241, 0.0522839759363508, 0.07592002413877731, -0.06526916197836113, 0.06436981467270675, -0.05505043413050372, 0.06838511941695888, -0.024091171038482656, 0.2057691264889991, 0.03532839599747384, -0.07317159411830948, -0.0899397014691002, -0.032753150494967784, 0.019981933292380863, 0.02169082428078761, -0.1608601031166314, -0.0850869831842049, -0.035550376472927005, 0.15023264408843887, 0.04298398392088362, -0.012268689230658367, -0.038009478812184125, 0.05054755393240064, 0.07008749165497646, -0.06813914930598775, 0.15337232095792894, -0.0038326825164178555, -0.008990470401826786, 0.08431901279428895, 0.03814980797738034, 0.020412070696652757, 0.004865332729511115, -0.10728144668849844, 0.04794472333475468, -0.0747999694819032, -0.08261185789767378, -0.10077027954379666, 0.09498886716241874, 0.16547741573374433, -0.032101991876148726, 0.05901499270961198, 0.07881212494104087, 0.010435068306169424, -0.0743213768918779, 0.022159091558119147, 0.013635651511762669, -0.04367902041671825, -0.02007837424249654, -0.0708860740691176, 0.11676759550567205, -0.02950132758446326, -0.08954651946931572, 0.08454762888153401, 0.03783434449928767, 0.01372203268138139, 0.01930444415451621, -0.06486066384873518, 0.15320766481737033, -0.0363227115855284, -0.12026751001785259, 0.09731544862796736, 0.05744077480901198, -0.07882969809244708, 0.08884612217765561, 0.03036925856530654, -0.03007465689622249, 0.017520609685611484, -0.009917170222482168, 0.05260346655702154, 0.03261176100900316, -0.040306638887085994, 0.0991253170374378, -0.023697937899507988, 0.07072062014529062, -0.04739454362706132, 0.09160727542850537, 0.10777341758993783, -0.03587380921359862, 0.07322143088862056, -0.10620260919956563, -0.08902506210141295, -0.02508573829827266, -0.059207097041941506, -0.016137062515953624, 0.029210618709349198, 0.024386823083717514, 0.03720750995976653, 0.024991691153189517, 0.04713690070139613, -0.10121670469405365, -0.1229032478106223, -0.13758841094997648, 0.11772165685681261, 0.02026292843366121, 0.01919339924275098, -0.12778612326627262, 0.05183034628900844, 0.04170265433674291, -0.07854947853331515, 0.09333978279439682, 0.11235831641464354, -0.006658637284231811, 0.07583417315026841, -0.048679806143168226, 0.03632230390505828, -0.02710562263802904, -0.05796877147050105, -0.09367770149219627, 0.08577908481980706, -0.06965904612417032, 0.07318575709385176, 0.005501729000069902, 0.1414196494770962, 0.055393447848210306, 0.04721984286521954, -0.07032506269446638, -0.10076462225805893, -0.1159863013114099, -0.09725151941229968, -0.016477108412280773, 0.10312531942770041, 0.00814497202150434, -0.04251992844980084, -0.05903511639322759, -0.03575116928439226, 0.018451321799110066, 0.016969302756652368, -0.004135648381469693, -0.062027129641581906, -0.0968437662981972, 0.08134374383361649, -0.06533196247636557, -0.12141603900398457, 0.08135949316395737, -0.03532500669668225, -0.02469014716148163, 0.08769996464369635, 0.14813907400366538, -0.009321685460250324, 0.09977015413689494, 0.015506219228672567, 0.02269179718572797, -0.008785760638120648, 0.02916875304349304, 0.16047417635787856, -0.08011809718749878, -0.13080167840486062, -0.0748327161904236, 0.06589326957606745, -0.0768167260310511, -0.04165883797216426, -0.03087884544347536, -0.10854886755729176, -0.024537020517821646, -0.0285237638865691, -0.06861279501289756, -0.0038329395532793954, -0.11841758676203118, -0.0058852268201150925, -0.20758471326929098, 0.1259644256130011, 0.06116856506300298, 0.09801057832028336, 0.035581970051856794, -0.017983415039008684, -0.05307137542657954, -0.0034314955326278426, -0.012366676222951031, 0.010723738985820255, -0.04512206631189152, -0.0565177187790886, -0.04932927853465618, 0.14808562138197337, -0.08601818783048408, 0.012693981103970364, -0.05778730912866983, -0.04596619385518264, -0.1747103309215516, -0.11703349508292281, -0.05396310673650941, 0.07114104168805567, 0.003848479353584821, -0.07639449826280867, 0.059946257467887024, 0.027824256126595528, -0.009679734861786155, 0.03463106282379374, 0.022696100752226278, -0.06602641002711017, -0.03646133899984986, 0.1597014863976574, -0.0522133703084062, 0.010871294549120657, -0.06158612534171629, -0.055012298176455664, -0.022266765489403297, 0.06036087129795962, -0.15391764222281407, 0.08836763630350664, -0.13826774433120384, -0.05044079163786581, 0.012014514501739687, 0.0819497373574615, 0.05990860553012545, 0.05625897963111416, 0.03828489903350506, -0.09024172820524162, -0.05778430332049923, -0.162912081950475, -0.06225956470022086, -0.01111600352418182, 0.006342834976448047, 0.01869624144802153, 0.03422148853697651, -0.08495810364620379, -0.05840491307404898, 0.0417845332146307, 0.11421361358453419, 0.030805714575667845, 0.1633823731226221, -0.01386718852431642, 0.0331085170995017, 0.07017520390596829], [-0.018916532674507904, -0.07194151825586152, 0.07744022709769782, -0.008096724110798077, -0.02108367887007116, 0.09054306019366627, -0.02539787574172041, -9.375655325659116e-05, 0.055008034835735936, 0.01951616187754858, 0.12370115980761749, 0.05649432914020711, 0.014228738207228541, 0.06295823946370235, -0.1081152013438804, -0.11703518380939454, 0.01995690249819571, -0.012863621047217805, -0.035840831807387986, -0.05613182706513598, 0.042581455965968545, 0.07502873930040081, -0.023967599772834428, -0.08818949018453283, 0.0011334209347066077, -0.001501453244983069, 0.06645265622533823, 0.045470163556936796, -0.13764750613922377, -0.023929707484369026, 0.023540472326618232, -0.02162055153770411, 0.05851730245294889, -0.08477298906667488, -0.0677061418396361, 0.02913333938482197, 0.058162624469725255, -0.20359632213833048, -0.01060183659056213, 0.0157533178538826, 0.06845217758130889, 0.01610214906039825, -0.03377567312951174, -0.005092941839015737, 0.08733918902872193, -0.036309322742969885, 0.05404362996308829, -0.10513340838547666, 0.02658816818231093, -0.08337652605098535, 0.1518614154645674, 0.08024615461437477, 0.06707298750109231, -0.0595595058397367, 0.05498958863781998, 0.030861452776321543, -0.10667272097588779, 0.1250352068048108, -0.015278249026094782, -0.11302759863088246, -0.06311691823901222, -0.001915107367621263, 0.038071090372785936, -0.09735689146250774, -0.03309094990596868, 0.028817698477168495, 0.08445843805193505, -0.006608557256821188, 0.08516013769671821, -0.030403013268555802, -0.06985200017682427, -0.05562190750422174, 0.053105336139994484, -0.010609029925886781, 0.10643449233372097, -0.060457396065116444, -0.05963638020422466, 0.05165178409770463, 0.10599046387208641, -0.01352644243010916, 0.0691170835790191, -0.06226451873187528, 0.02077577474914024, 0.14964288203525847, 0.007875371320504556, 0.1209218906381851, -0.1818906014347489, 0.11058137816588716, -0.010658524451831772, 0.043073048258606625, 0.012341838527188419, 0.07314210568806054, 0.051009059809271645, 0.01921175261903894, -0.04955199783950602, -0.1529788984211006, -0.04759884663562714, 0.00561235053142832, -0.011930480350804903, 0.09972744994156607, 0.09553762953479988, -0.0172618109930047, 0.02737309744807062, 0.07835664356216782, 0.07090531684555382, -0.003923204942900043, 0.03498790731168702, -0.017136999483671395, 0.005563979603554369, -0.029377733139639442, -0.046526955478415934, -0.002072514289610095, -0.07670103225810812, 0.008327329141035922, 0.06089021607815215, -0.09422207253167553, -0.03392685174408677, -0.05757825229202946, 0.03488201331728599, 0.16178287254497636, -0.06396790870885738, -0.004570418385691027, -0.09798785384399206, 0.0002720601663018255, 0.11614815985836888, 0.05379728699081544, 0.08312273028512078, 0.014329406728870278, 0.06522979972532715, 0.06392735424687412, -0.05568681105668784, -0.0955991561230578, 0.032426339715807564, -0.08813152576298529, 0.08264924775629416, -0.011639465049803448, -0.042355169647921735, -0.15202367210595272, -0.011980597686154974, 0.07925969678477138, -0.009077988099102385, 0.03176545351013812, 0.009960829528806068, -0.005379211842302402, 0.02016929520373058, 0.04259809191448318, 0.0044715730972955765, -0.016454440360770192, -0.008672353603334966, 0.11148376824908462, -0.0702036904011872, 0.11107958504929477, 0.022541363562974898, 0.04175166297562772, 0.07617180638930673, -0.14708224690637803, -0.1425532445990972, -0.00909153678334242, 0.02729740814137351, 0.020163355826402975, 0.026924153328520394, 0.07430168167574393, -0.06628559227488894, -0.07330051476301959, -0.0361918742087219, -0.013342760762559167, 0.06538897230531614, 0.029954988720994558, 0.08654909872763047, -0.050272531757431904, 0.07863562099382806, 0.0375854755670556, 0.052057961695800244, -0.06586346555197561, -0.05962916453677965, -0.006814738412995692, -0.013187491129332145, 0.007312306250699238, 0.041181071806901684, -0.16723254242329905, 0.06032801231681718, -0.06800401633051929, -0.013343082598722333, 0.013115576421744731, -0.038918599317671165, -0.02615951840708473, -0.1475752979221472, 0.07389863468271624, 0.0007128092737137038, -0.017583631259941, -0.2227040691663535, -0.0016894802814406832, 0.09022515012223295, -0.14849026305087792, 0.1232126231669708, -0.10294397206143176, 0.0786601814597075, 0.06225623774348585, 0.15461881187508533, -0.02217511532730248, -0.1404584451065499, -0.08375422713176245, 0.011217663100566273, -0.009049025995398245, 0.1887201293170502, -0.18184589389232628, -0.03981154873449567, -0.13927637071870522, -0.05708152093212157, 0.019123497099631907, -0.03884696534878535, 0.042325713386300284, 0.06499464985125608, -0.13443250818235372, 0.036700129414203475, -0.1526316709958433, -0.037466796801479144, 0.04035990704861526, -0.00968982580113226, 0.06216039133359044, 0.06608216379193711, 0.036070305042755206, -0.08500708778556854, -0.12163842230159713, -0.0666035157164244, -0.04823734975327295, -0.045105972812898285, -0.021750219371118016, -0.054250449451559046, -0.029050243880040606, 0.011044131379183971, -0.03479242378615196, -0.006714730031890964, 0.09806046449537817, -0.06222551838932042, 0.1319276764573186, 0.005155130583866559, -0.03004532834103765, 0.06496056308997976, -0.06067961787219511, 0.06505575904105193, 0.03572615328367379, -0.10923287991053203, 0.017631023614390028, -0.1383926503271282, 0.0064520196323845655, -0.041122890207245376, -0.008014778905942831, 0.026477130023611364, 0.024554957603700266, 0.02508124831822348, -0.09457362259667604, 0.08654443634921509, 0.0056097074216222495, -0.0258863104531061, -0.09741215605149345], [-0.02663617685182223, -0.07497795933903732, -0.043578186730469294, -0.043902873541745276, 0.08964564845093939, -0.05517297573763345, 0.019283675936654924, 0.002166118875554115, 0.10648794918925382, -0.06867702281553362, -0.07887572063740184, -0.012403877339466934, 0.0266077201185317, 0.07227021389658755, -0.10417542419657191, 0.030921344242463154, 0.16058828600135908, 0.07231700259232815, 0.08586250942082549, 0.03686955092450593, -0.00615208370668981, -0.0387692282260462, -0.09313356314574403, -0.05490907111398262, -0.02237570936865954, -0.06367586744185934, -0.028594943528610074, 0.06247771782817932, 0.14496317430534103, 0.05677677637068188, -0.1112928176559309, -0.009903209589594173, 0.07370031277799328, -0.1396895116033867, 0.12241003157501221, 0.06125174275111136, -0.022516829155466076, 0.015193311825170574, 0.019755133811775145, 0.06329274690243086, 0.0024471986407684555, 0.06394065369008951, -0.009823195526447072, -0.08487732654460692, -0.13003840131887276, -0.012911379817999386, 0.07798367938103336, -0.06319834437524528, -0.053709950277615444, -0.08383696983703016, -0.03844618284574964, -0.03102422473589026, -0.04445975942473135, 0.04747521708121176, 0.037160075755811345, -0.03723446321849995, 0.03796693121963609, 0.03548352574324748, 0.049234349423712596, 0.03251499672747718, 0.11537010383788097, 0.034383638643624675, 0.013951054658820645, -0.032846392872468835, -0.009157784989034882, -0.0029773211020059573, -0.014562499657016491, 0.0068531769543288094, -0.029472815520171242, 0.08245079058015824, -0.023378643571289444, 0.05793496623403504, 0.09717061048335948, 0.07292901455668706, 0.027270600013074603, 0.0807298140048706, -0.029918609420240133, 0.08061273397506119, -0.0686310455698261, 0.034254432630914065, -0.07420207555864014, -0.002943757986334801, 0.04252342862045897, 0.0349683254269086, 0.006305332370606093, 0.007021599135862428, -0.015841672479448305, 0.0322050872090166, -0.08017237265532862, 0.027817996564071627, 0.03655770160355718, -0.021532705709096326, 0.019758562692214706, 0.09336077236526091, -0.03768473059057919, 0.03249573409935745, 0.057330923440661034, 0.04783554199382938, 0.04295891075332492, -0.1413897576235525, 0.011089892110737909, -0.08652804459425628, 0.05512809294015186, -0.05071811219059116, -0.009890957961664629, 0.04999298633721518, -0.046152664987238176, 0.0871056174789829, 0.04212451260328538, 0.06401549363740994, 0.06178822749394661, 0.02309001828332317, 0.0443860639084929, 0.22479704397746922, -0.00153250816237742, -0.059416415041768804, -0.0052885530822356025, 0.03141295434761833, -0.014174297024882963, -0.18883654542605338, 0.08473828634860568, 0.04753953485450676, 0.10940168797112751, 0.02995369774573704, 0.04524357837939413, 0.09600859377720251, 0.14024270691216298, 0.04572661915450443, -0.05800346622133106, -0.04110936704595214, 0.05481419987853591, -0.11091953437289928, -0.02902409474111211, 0.01988197550201197, -0.07997959506316585, 0.1094313398337146, -0.06538142980047781, 0.12483812004864958, -0.10070833175269672, 0.007616533020453297, 0.04228767754053509, -0.15262120246308203, 0.10946882598387145, 0.06806050357358878, 0.04051749057248658, -0.014561988810282525, 0.12039995820716408, -0.14696749969291162, -0.09930763742937021, -0.03357282013773421, -0.03203160552445312, -0.12227855170024954, -0.035319950971964546, -0.1525401107594711, -0.023186416760079775, 0.06556914817569913, -0.169471579314587, 0.029912565218603096, 0.02619277050469035, -0.014865933988065998, -0.08075674398785039, -0.00747447657986229, 0.025311168520846052, -0.05052146937158122, -0.07719233084551311, 0.013495461050935582, -0.13762406077734804, 0.07251687153145243, 0.018173970237380908, 0.00037696112280802285, 0.015728764527831667, 0.09939204645605632, -0.050706617756587365, -0.08196635499819296, 0.19811864743591265, -0.07096782285576372, 0.022265621096518026, -0.03766885683366287, -0.008190701597696108, 0.07799140798364322, 0.008185065341364667, 0.044852024347843585, -0.013581931912727302, -0.0601268321929848, 0.0057250185214718875, 0.16274534667836177, 0.05919548814878451, -0.023773122352501525, 0.06097695317170571, 0.012767479308462702, 0.005032295854759875, -0.01353649814596483, -0.024574507663161906, 0.044415255390920394, -0.012325385479950123, 0.06941907160266932, -0.09650458384083355, -0.015181087727964886, 0.038768933860489053, 0.05262853278733095, 0.03260119393319001, -0.04637862246583113, 0.09713528567042878, -0.14158824315026677, -0.009867920565170184, -0.06883491399655527, 0.03567824187495854, 0.050051184872755894, -0.05444819461054536, 0.014134303724621211, -0.03437933505432939, 0.031398591982458195, -0.015063313193572075, -0.09300421128974842, 0.01514520759482382, -0.08896185340007692, -0.09760510081282667, -0.004782766744150349, 0.11363197528194796, -0.10157632131353052, 0.04363146387120934, -0.028252549737165462, 0.055303096439987265, 0.028278735516358646, -0.03387233691024052, -0.08081526303788614, -0.061659109779101565, 0.05988766347534176, 0.03657786932208953, 0.0447527204199236, 0.02288934391241232, 0.017150959245887887, 0.09705870621408841, 0.07789811035598895, -0.08040176872058606, -0.047698598943374484, 0.11740897927544137, -0.08625207348457964, 0.10249606991499689, 0.17578984433033037, -0.018549818256559793, -0.01624306771649336, -0.03009223670707271, -0.04642941407471339, 0.021889327545298393, -0.024080731812761123, 0.031108236517541365, -0.053599376064528574, 0.057966496682250505, -0.11473388989629488, 0.04521643302799921, -0.039453042226436544, -0.0682500836564163, -0.06262023276361556, -0.03322522714738407, -0.07054257676401411], [-0.03271818293600043, 0.008863072382322689, 0.006497750348756815, 0.010712568616758516, 0.09332578903085535, 0.0878103582791911, 0.03888791937162094, -0.0174289359135037, 0.028516575147679028, 0.12129428597311204, 0.012072005949776568, -0.07434784183335127, -0.04753747519209795, -0.046444174391992325, 0.032235956896821634, 0.07143552012325673, 0.14317492040305166, -0.03335299294520027, -0.05307288077818758, -0.09944073563347748, 0.20084695025451238, -0.11411560971086912, -0.010505736989454983, 0.019865508529738982, 0.13554767282527722, -0.0415108380350973, -0.02310084003155857, -0.09299338481292997, -0.010846459269433999, 0.0005931132420625562, -0.14513877280291673, -0.1810545737856832, -0.09506884720657516, -0.050719428122452205, -0.027055800587942557, -0.08085886317157172, -0.013035238841683247, -0.007205359983409032, 0.010346920786292482, -0.17454848016094884, -0.06094889197002383, -0.057168632577122055, 0.09269112136001094, -0.088402469011472, -0.0980396919460392, 0.04159380609857852, -0.01252743493822708, 0.04327926018732897, -0.016120702477880996, -0.12987673761312998, 0.12351380916588743, -0.013254171242198413, 0.1495920553800537, 0.06594112927138882, 0.12642697763773783, -0.12906001217654392, 0.029121797496652876, -0.005877750638527955, 0.03329383869734869, 0.014066041474303796, 0.0021883305436656187, 0.0028005241642985695, 0.06559266840632932, -0.07273562114922467, -0.056664331704545295, -0.1246420857644211, 0.03731423992676567, -0.038606643627772365, -0.04755936339117597, 0.06908952326186607, 0.08791595827638564, 0.009260530316886322, 0.12342944260599131, -0.014976197593450907, -0.08100594561264077, 0.03137851560997276, -0.07311796479785967, -0.013548041231724697, -0.007088689420991829, -0.01691899585157758, -0.103498003374658, 0.01679761910387309, 0.0032625492936349822, -0.03529745237321254, 0.04958199050462713, 0.00156047019703494, 0.08969942468737334, 0.04138903989155824, -0.017126339432051402, 0.0904620408614533, 0.07597356322875282, -0.04494827662917091, 0.03142115662493437, -0.0197473895126683, -0.017975949974180793, 0.05366925626119715, 0.028789902000535134, -0.10561772345764678, -0.0568927997329282, 0.09178216417492015, -0.15902255334338086, 0.07922622202028251, -0.09509885478178653, -0.06497129760581255, 0.017913640820703496, -0.013232826121475584, -0.07549643246794868, -0.028562841192109705, 0.0022982373329833374, 0.023702418564391384, 0.007783141524095762, 0.029436073788820245, -0.09798216660587981, 0.0701178848838796, -0.023896761003633808, 0.063106277341244, -0.05905780197059317, 0.003575533230220003, -0.06100913197213828, 0.09745196838113042, 0.12804501088666606, -0.050301532291504095, 0.11202434671680736, -0.13241659809024062, -0.07287543770531604, -0.06344673964078286, 0.12174726130852649, 0.044252654397911366, -0.027573502999311713, 0.03856693495882209, -0.004514677334211794, -0.06312211459027521, -0.03219780915400064, 0.0252371982887753, 0.10274423531603034, -0.04843188472756718, -0.06850333237044702, 0.032074509722735664, 0.05159488354332004, -0.009018202107689338, -0.09477248880730524, -0.05148133095146672, 0.010973217834326813, 0.03810678745857502, -0.12256078222096535, -0.02351625553794115, 0.11297986844658367, 0.07869273666845208, -0.06710202630006924, -0.08624556445182004, -0.03155468539153331, -0.11406781827512716, 0.02528170361032076, 0.06035707794175933, 0.11806646042015746, -0.04687622389661709, 0.009610294659525342, 0.2503666769141266, -0.04528834702594301, -0.15275311038570874, -0.03172940582004327, 0.0287027660958436, -0.018148280803283776, -0.026810094405398634, -0.009552678803900634, 0.026472122666309217, -0.09276534677640444, 0.07066894763902772, 0.040076424199179984, -0.06592789770056111, 0.0050116752237287275, -0.07254685965885588, -0.05212064600561263, 0.08980132813868841, -0.07297619475238858, 0.11563194951497306, -0.011712487150120004, -0.003260624557400081, -0.06944077206195445, -0.07682302422574933, 0.042027877397679096, 0.006872099677169352, 0.1595838808549762, 0.19392423351779942, -0.003424888126599796, -0.11994749274504783, 0.05535533524571974, -0.10930497604730009, 0.07030115541342645, 0.117540037761333, -0.09320812396100533, 0.02399842549724795, -0.10178709504275722, 0.0514767970347339, -0.07607541153857077, -0.055139238638111536, -0.07591959104428801, -0.016076158621615926, 0.011830721179497801, -0.07729234733859387, 0.029267356857791773, 0.04589940427324702, 0.02113929925575046, -0.05312978868506372, -0.02369689041878871, -0.0018406294957107167, 0.011363909555022771, 0.056545111266565654, -0.05233328450307914, -0.03768697989914349, -0.0017925230992292048, -0.05232291656853082, -0.08209420518911864, 0.08877762307661206, -0.05844606749484657, -0.0700403532661535, 0.044806395404216104, 0.05442175971129672, -0.06922924590509331, 0.052647134151695106, -0.10973446357345312, -0.07609115768172786, -0.01566373138057639, 0.12279401198493328, -0.05866882007154145, 0.09080732543429818, -0.011375912788726896, -0.08526070712695068, -0.051731971619747574, -0.05983428922961347, -0.07642685788883559, -0.004042004276958102, -0.06770545080674317, -0.08241336563177352, -0.06822945225413933, -0.07492710602642356, -0.11237634060697818, 0.06960391499862587, -0.046423156776543247, -0.015362637577673224, -0.10597576438266354, -0.052846357101897896, 0.012212173499438138, 0.07934607634139056, 0.08511007603058861, -0.07507231231168117, 0.0004910082543897998, 0.003115187483339698, 0.04601230778636817, 0.09222645194550425, -0.02287404248644046, 0.028065911032918084, 0.14470356169079937, 0.021852820672220646, -0.13459455057790437, 0.03259804880460673], [-0.10214324023668558, 0.0503278335258577, -0.008933142657253135, -0.012301188414492919, 0.008273230593647422, 0.02988037893003874, 0.015807214156765476, -0.01846208656297029, 0.01181831339360702, 0.0695337553005516, 0.17885160406283995, 0.0654201466268049, -0.006637518758017041, -0.030855343349882342, 0.09287999547115151, -0.01702468935259701, -0.11734097430959367, 0.013408905029733688, 0.06666134703730547, 0.08184876037373945, 0.031886175439293875, -0.11273342462190696, -0.09327715624722412, -0.1225257989015903, -0.016041868992943697, -0.04239481900783921, -0.014818116276040037, 0.010193688685809488, 0.02672369322610471, 0.02316176746242785, 0.033620031592370196, 0.026883836212546853, -0.01847826361656299, 0.01646155455919616, 0.02384127372183923, 0.03653658263827692, -0.10078993366635229, 0.0769011893467313, 0.12719188843047566, -0.019107026823143695, -0.054137165169196436, 0.011474800625834237, 0.07981397605907625, 0.10522195308553714, 0.06014277385028197, 0.056980359597930144, 0.004563187282603206, -0.025648079363137517, -0.0019108924573470391, 0.11076135049490651, -0.1462183282617505, 0.002768174164549266, 0.08880538045857614, -0.08203709265945563, 0.08652656681866426, -0.011414973624733761, 0.09126264856130319, -0.11351823559051101, -0.05362525634722368, 0.011239559119175905, 0.05618081569110431, -0.09890618550148585, 0.03382448099532545, -0.14490385680345325, 0.0006913103121538221, -0.0862476304641777, -0.0973974261216766, 0.16356191363737618, 0.03273722092692577, -0.1268340455742912, 0.0774420788992877, -0.009317926322533032, 0.06909664821884678, -0.025274525871359865, 0.10677089949514375, -0.05608977958934782, -0.03624010291259, 0.006755912359408094, -0.11850697685169578, 0.06966179242620016, -0.008406427425848061, -0.11850751300841895, -0.03263657857168875, -0.0563402154851716, -0.08418716251454664, -0.054550440861352696, 0.08115907332458613, 0.03443502234831023, 0.053837407976598216, -0.021448921684253188, -0.06355882313590673, -0.03654341918242014, 0.0497354151366071, 0.11580860084533356, 0.08233075003961837, 0.023016196331087698, 0.006153145317263059, -0.15220054935400712, 0.03511892914382084, -0.04958012374690523, 0.020889333648324567, -0.16506691318631875, 0.04262056384880094, 0.01743873274811915, 0.021441052988562772, 0.03556569043703451, 0.07832963881786256, -0.029877203098975305, -0.05827535660426112, -0.10253989086972462, -0.010644887817516007, 0.020435087088804035, -0.05065786011904065, -0.03535909244799765, 0.009598739977208944, 0.10828574163857653, -0.027572072002725732, -0.05052107454815495, 0.0563015116178036, -0.13970265224664352, -0.014831725985367354, 0.0764230426031333, -0.025451546154791428, 0.12429993596207396, 0.05292522125746019, -0.06333815993604082, -0.07162151382610758, -0.053353307244407754, 0.035277264904424, -0.0019734548199767748, 0.021051219240461286, 0.10327592575911483, -0.07047356882260328, -0.09593566169230985, 0.0027071548473558992, 0.045304601999765694, 0.10516539448339894, -0.12466730250268916, 0.035366571354789454, -0.12965725928638033, 0.12148953089013699, 0.061580377231599814, 0.03207659011932783, 0.07665966340522086, -0.01595830186993073, 0.043535405131058184, -0.0518641684280353, 0.06699090195393731, 0.13756241077525524, 0.042510906715146624, 0.12872347180023921, -0.11574989308652817, 0.07157169809642075, 0.14084857569730466, -0.10311409815670072, -0.10615341465722322, 0.09075538675518921, 0.02606342345788033, 0.010802663677568313, 0.007142910972952124, 0.05655730575225656, 0.087738492993553, 0.020761346748545184, 0.0233118415216641, 0.03568004247860222, -0.009809106163862071, 0.08427753833595748, -0.0654647863370727, -0.04445003013638084, -0.13970735849838584, -0.04036463132266729, -0.07464790340506068, -0.08139500109896271, -0.0389844571103423, -0.021151601353632445, 0.06607347656148811, -0.0729650141572607, 0.08739947693255028, 0.1648587140291233, 0.09793870746022794, 0.15150407503802552, -0.04056777240873875, 0.07071250179282827, 0.11225012037882612, 0.015089793730560375, -0.0061325634817964185, -0.020384499463072026, -0.02451262425673082, 0.18007459514319826, 0.006347675478704246, -0.03848625657098605, -0.048520226450517956, 0.1495366150558285, -0.019876420127536862, 0.010802490282485823, 0.04500071399588978, -0.08863667315594922, 0.0599376607688913, 0.083751831263966, -0.049285560841859505, -0.04343682871710614, 0.06809305724903976, -0.038039196138763505, 0.0033314327199058303, -0.09155705535260815, -0.10544486529974106, 0.051120073344472876, 0.03544316227561687, 0.014850180807612048, 0.05846966195261573, 0.06827947656027221, -0.010239920918692757, -0.10258184458046357, 0.11148766416591296, -0.007500589383346567, 0.047090128561860886, -0.01858117494814283, 0.03133734331963819, -0.026916011660725703, 0.11975549302715188, -0.018833045980557277, 0.020277362217294415, -0.08569340742206664, 0.1387418784427532, 0.037578373033964135, -0.1060616487655708, -0.02782244050636357, -0.006428608773469195, -0.020131313677213755, 0.0006199225668641574, -0.009875001376226161, -0.025278240552955637, 0.015192251107369137, -0.03610624422671322, -0.02120656628384431, 0.003460230185481373, -0.06000383563183182, -0.033505304298415355, -0.028471058226180172, 0.08874731501130904, 0.0718929690843548, 0.03678686811392162, -0.03364140936739336, -0.044660689294969205, 0.024816566728743703, 0.03186660396143053, -0.044877662861110806, 0.013908984492662846, 0.03561042198052636, 0.07332945191527522, 0.06824612301650303, 0.07003485338146581, -0.04449617247970257, -0.0016697959707833866, 0.044595333546649116, -0.07331800902817381], [-0.15618290273319854, -0.0070107478811173626, -0.009714110576227765, -0.0939047256036274, -0.10448901115509028, 0.006898274783442132, -0.05874998660230002, 0.06959014742717255, 0.01819224435117912, -0.001624200971621929, -0.09150855994968303, 0.021996202406617482, 0.03758207032975121, -0.04810204376786657, 0.03219848906732749, 0.058780020180013, -0.005629496426890445, -0.012724429184614146, -0.08023135997425114, 0.1169158200983763, -0.11388858692098813, -0.03638984063668987, 0.09196561348763699, 0.003506528920693586, -0.057970120203393906, 0.050806906094254395, 0.033136629110219494, -0.045876791312063445, 0.032589112526817746, 0.0896726604258962, -0.09476412220034136, 0.10931329607618667, 0.08225460486066354, -0.0060542213136411775, 0.001787928446502732, -0.042715215731140725, 0.014746209481810765, 0.09893321741458411, 0.0594482772566376, 0.11605352448255277, -0.023502046531131002, 0.019285605633151206, -0.10314702127047858, -0.002413604151737245, 0.08793523262415384, -0.016558565804569898, 0.003193132595656752, 0.09180706720499433, 0.18192504833933315, 0.023275146653967144, 0.07356246987285239, -0.08703595467697695, -0.06282456084747277, -0.04145033929709968, 0.013644620764731849, -0.03989247209240199, -0.013092593896022832, -0.0030325403090491355, 0.0810812678863131, 0.01561165375565611, 0.06400449320788772, -0.009722724359081603, -0.04647259236915788, 0.007195240275492024, 0.032123628967140945, -0.005141633882510086, -0.10526530313471492, 0.06323245717467865, -0.013344474387942512, 0.05543932929619172, -0.09539616214461766, 0.07380549469554895, 0.06714881333699074, -0.04869620541002, -0.06915554738286103, 0.05193281891770097, 0.0038351951499557622, -0.01635460495390951, 0.0014345540805638058, 0.11350652987131399, -0.02977439711614622, 0.002138166816727228, 0.035224651719680804, -0.020875888672621336, -0.06697213126244904, 0.04953602570853789, -0.05586329852945835, 0.04746082245114743, -0.009388203965953886, -0.07640517214591266, -0.017973602886593658, 0.12181702261189122, -0.05395108120313742, -0.11274069037059273, 0.012825953130853067, 0.08223121483769168, 0.04030219181331663, 0.16391490574391474, 0.125525058285849, 0.03356403679402624, 0.09003141754615478, 0.09403799228874576, 0.1643596421199782, -0.0757498470792573, -0.011986294666824257, 0.0409283416341946, -0.10076231240202191, 0.006966335480831953, -0.07556198885217567, 0.08232179097460768, 0.10125935189352368, -0.11770650242610256, 0.12908110137970905, 0.034658014315469214, 0.04780737549246513, -0.02662072984121786, 0.13891909534708766, -0.12344552731873823, -0.030978447092021393, -0.032392921704777713, -0.012924145665596081, 0.045314747063113885, 0.018726978217678814, -0.04187333809525843, 0.060288199806171505, 0.09701464744783629, 0.026618919073734842, 0.016053385352786144, -0.10041444864417087, -0.058757697117393023, -0.02172026731420904, 0.012196710410709806, -0.04324058918946364, 0.015262786198498097, -0.012912081711164779, -0.04813997912545039, 0.09570938926739127, -0.09105397604868486, 0.007432063480434639, -0.041379308266993896, 0.06377241893922685, -0.003072638049115622, 0.0868366514938198, -0.06590331373768636, 0.013545499575971353, -0.027535232783131032, -0.14540962094227328, 0.07282886977416138, 0.05598008394718488, -0.05069965965579544, 0.11289235287569135, -0.07963120249838757, -0.06824000030168634, -0.10973564416171747, 0.05323890385480913, -0.01953248057626375, -0.0021845866801169294, -0.07439158291315617, -0.06478657941362732, -0.07478171611516823, -0.02475208404119714, 0.005717576787412624, 0.012833022234988766, -0.014654526164938262, -0.10799164241441098, 0.0440939601220564, -0.014903796017148797, 0.09732866906597872, -0.11198831822803994, -0.0037188501936261595, 0.08648772248359896, 0.04472968890904819, 0.044273863419328076, -0.13034226306054952, 0.006799770899714128, -0.002582874302213503, 0.0694033019949308, -0.09163053658330247, -0.04340460310400074, 0.005790048312827466, -0.07268607987735431, 0.00445387100617838, 0.02272472139097373, 0.10037851833328584, -0.03904586318884014, 0.041944480599118664, -0.052984216159786796, -0.11353237826434998, 0.0013826022674264147, 0.015559779147941344, 0.017242714441586232, -0.018838511918644645, 0.13784528285067715, 0.06360022537737559, 0.09658905296272523, -0.06379069902954099, 0.003582567866304762, -0.046180155367407216, 0.03294435756217722, -0.003649970388375684, 0.06869650418659648, -0.08675706757643908, -0.015467859763378573, -0.012434187381439815, 0.09978233687297003, -0.08884699330988108, 0.029512827756696818, 0.042206021748268145, -0.02782191896720047, 0.000909139233503237, -0.055101764478755116, 0.04307684341311129, -0.026085392079264847, -0.052531741807721466, 0.015981399404328255, 0.09414103705193588, 0.03696430659101059, 0.16648148985294633, 0.03777778572853755, 0.12375732174175545, 0.05642733850611935, 0.07874477759438128, 0.11157499775126824, 0.041854305957115555, 0.04476833417773008, 0.14049632315241034, -0.00654987875518912, 0.04903926964781984, -0.017012739754084343, -0.019239269543271428, 0.0031953770599249167, -0.09165103708124715, 0.05951515770622588, -0.03126259992840586, -0.014141892646141761, -0.005797213842369999, -0.11134723188439465, -0.06952405573636673, 0.07681574201021873, 0.06912134606349613, -0.05271600924521803, -0.11779272709930949, -0.1177318137138759, 0.008630648390720305, -0.12522148307526743, 0.14869509577634338, 0.1356863471018148, -0.04170099197368266, 0.022667932805673148, 0.022200843756095014, -0.049651787602586685, 0.05536168629300098, -0.028979690793256106, 0.12913064823958215, -0.08329712036221881, -0.04455219308703024], [0.007226169784160411, -0.03631153766873748, -0.042830618091305714, -0.0652010824281401, -0.028048085095407977, -0.010930812700965077, 0.06050829810340163, -0.009823473622017022, -0.013054087058764936, -0.07470948289949092, -0.02306315836571218, -0.044130762915959715, 0.012981702499765968, 0.07794764101639146, -0.08901050030799171, -0.050712571265150205, -0.004551331875552093, -0.03677558109208684, 0.0753469678835594, -0.04877120130485603, 0.0074857344045743835, -0.06153602110066125, 0.023553302681698404, 0.007825376540631276, 0.06172709480642761, -0.005099599317074817, 0.10552681235321973, -0.13328306305522966, 0.040578473226473226, -0.03422364765379663, -0.05531414813598852, 0.0006288839265320747, -0.014514363045186001, 0.04637494623791873, -0.04466010938623214, 0.03473500976810071, 0.002056449320210751, 0.024948343339236262, 0.10701834532757978, 0.016122574094580344, -0.0034520302789588573, 0.10215466885919108, -0.005512611823617218, -0.01195936519615202, 0.016329568801435095, 0.11439371437030636, 0.03523342340146546, -0.02497093318861165, 0.04271019109092393, 0.00028465819391772684, 0.12437371914129268, -0.07830832278333305, -0.04046206137205366, 0.047095222754959205, -0.03184320778131563, -0.03719030224563844, -0.024145354195792914, -0.019922465939745882, -0.03649273699135797, 0.04355345144035677, 0.05091696499815957, 0.07801193923667225, 0.09355256426693682, -0.0035288328520147144, -0.03771087643613283, 0.050567252614707785, -0.015711310368026796, -0.10385311750621536, 0.0020089200762131512, 0.0007055540745416664, 0.002624159194082531, 0.08202241736941861, 0.0064530842973376705, 0.1695608167120334, 0.10769498231891225, 0.02206913540966882, -0.12252726878417095, 0.0066399527678388205, 0.022625475233747, 0.03503654867763648, 0.055866899393618254, -0.07802140035228197, 0.07691439541239427, 0.04439134061175427, -0.03409552974707554, 0.03736280045519066, 0.06125253671106094, 0.07044204815992147, 0.05421712709158261, -0.0006401283062271127, 0.0731438355998846, -0.03931917779253754, -0.00024228987831296714, -0.02944705940137802, 0.009266836005168045, 0.10660930726594477, 0.003055349927944475, 0.07235000285360298, -0.01647399295536504, 0.05213145789849021, 0.021889099524722073, 0.060422071256083655, -0.05212131261591397, -0.0477880894023234, 0.0004266803976449819, -0.0239470160379803, -0.09071917116884824, -0.09423411012215394, 0.027468635211868805, 0.021420559573602855, 0.01410066043411191, 0.04533464111809871, -0.12029320681423068, 0.05518453232684956, -0.05855993812034469, -0.04686465554795529, 0.009719653104056753, -0.06899265999809837, 0.024351676844220786, -0.03133633094308324, 0.0013237190323769424, 0.05762133697521302, 0.15008830942883467, -0.13092374665903686, 0.03881729897526108, 0.019934354351161705, -0.045067580872143645, 0.04218707781811612, 0.012672320312807158, 0.12755785293460764, 0.05820454520466664, -0.02225278275879565, -0.06569032693155437, -0.021352441366198273, -0.020956169799693936, -0.02534665202340864, -0.036640738586872536, -0.06563882004378112, -0.007684670778584306, 0.05250867831907972, -0.1449773661111967, -0.1370598529373634, -0.03683655258187109, -0.01600330206051232, 0.010659128095704344, -0.10027541540423708, -0.014484632192531465, -0.07708035258187972, -0.02234593432483949, -0.10595645742251024, 0.053477813721204956, 0.120678650578619, 0.03582724192372948, -0.15572821982839644, 0.04503756886606131, 0.024113889392280242, 0.02240607860018647, -0.055423421212331674, -0.026152733989727336, -0.010021153746472097, -0.08646077993157604, -0.06115514355146176, 0.02539646201940721, 0.037685798363455814, -0.008133892662844252, 0.05273138006596615, 0.057561197899100434, -0.0737134125052598, -0.054064918708329766, -0.0833941359240806, -0.0758198258540855, 0.016623068063810524, -0.1394349662950606, 0.0033964265931049216, -0.04698494143142103, 0.0880386977771741, 0.026595847326013715, 0.07326158226947539, -0.038544669225078404, 0.006070845812247988, 0.08732173735574415, 0.03501247959629443, -0.02740270665710666, -0.07145054761024808, -0.15588932195428504, 0.03568198329405296, 0.052083010895536845, -0.09220520910078038, -0.10522972802566792, 0.07199134734042391, -0.07189193697562694, 0.061552228453322304, -0.06852691321698202, -0.00023336616260044755, -0.07404754868478203, 0.005049237287724988, 0.0180254956013611, 0.09281155874539539, -0.10328630679001424, -0.056737942417283756, 0.0755666707927635, 0.1270201291661304, -0.11510844137510849, 0.032591900328414324, -0.004016332085641236, -0.06279740981240316, 0.026001730930053712, -0.03356137637847885, 0.09889714344761617, -0.030547750997014338, -0.06934770657286593, 0.018814716276370335, 0.0440335336496233, 0.07287463869737794, -0.03426601276011414, 0.06586184894018968, 0.05439038206362789, -0.007249426616400451, 0.05374656395170868, -0.06020407539526453, -0.045727183339083585, -0.07536604252233349, -0.04520591220109125, 0.0026102100173980864, -0.05571794255649049, 0.1531244295691666, -0.0939005312272803, 0.002860006676411185, 0.07196183589980938, 0.04735215677101846, 0.05078803382348398, 0.07239220888035962, -0.10415574870459395, 0.0605308338976029, -0.05296570952603325, 0.023300267879236104, -0.1290752879947484, 0.043746271673463684, 0.00584038756356213, -0.040770459795778154, -0.09102646720523494, -0.019719005634176303, 0.019271857334423954, -0.10541802033837883, -0.07390756186322958, -0.01963601024341526, 0.08239487005907291, -0.08958659033545624, -0.08887737138160788, 0.010831266133859449, -0.051686841941756566, 0.027631176238506878, 0.051601776392521156, 0.07714201322329223, 0.006755584128931643, -0.017034547827219308], [0.016734445617630336, -0.03993461640609431, -0.02800495972002079, 0.025287734178440793, -0.023537317607627836, 0.10200650476183808, 0.07113709813739473, 0.15165229124815244, -0.01836402471804207, -0.017571670331888, -0.08937278237974083, -0.11792184031454303, 0.0643849419117684, 0.03569493331019591, -0.009560860946159579, -0.16501661117948266, 0.00021977463067215353, -0.04377905624729364, 0.15913551480129307, 0.09079773528240832, 0.031817184143372874, -0.06745064370931246, -0.042632715992759695, 0.008358421344181839, -0.04064027638725238, 0.06338856783432804, -0.05325498736861044, 0.04130963773645707, -0.03320701745950635, 0.11117387890697286, 0.09887641420637508, -0.12385702038405505, 0.07016137944614036, 0.05887918028952251, 0.045896599576103314, -0.04053958704418853, 0.005454956420793495, -0.012401179755637568, -0.03130601786869867, 0.08829471736631407, -0.059095892312222585, -0.07986443991477099, 0.1370138860744105, 0.12390074165585466, -0.05629506930823065, -0.03657739959403988, -0.02144073572254152, -0.023810004976713095, 0.07403371354705554, 0.10729456145157329, 0.09594959646667882, 0.015005473262971558, -0.06805058110351435, -0.07560623177168689, -0.001843612596619311, -0.04497359473553856, 0.08147704204354601, 0.023668227010435024, 0.03073935170153624, 0.04084455823093781, -0.1106323229391327, -0.03740554395345314, -0.00844300430979595, -0.0001860487001673272, -0.09229266044374937, 0.011633036761646912, -0.04809327480757081, 0.0075815994894058505, 0.02302812268512319, 0.06438279154265686, -0.0811456754238835, -0.05230987886596488, 0.08932645929977413, 0.015759665694512152, -0.017960236816480138, 0.009355464352856082, -0.14158877868515737, 0.05425810211174015, 0.033173753014110595, -0.06694748113858551, -0.02166961496206567, 0.07900275314775977, 0.12230070814451104, -0.13286515380008052, -0.023743737713818026, -0.10373611481800651, 0.0632792922499701, -0.08228378994902369, 0.044953403644712404, 0.03374733834972379, -0.11291894676161052, -0.08864534965630315, 0.0650551042781455, 0.03575278308576652, -0.059549686354605114, -0.048761498287717815, 0.04689991367778907, 0.008440865928098127, -0.05861752268766138, 0.11253635817169386, -0.06400949334590492, 0.05098756503159112, 0.05221185431712136, -0.13502912835374442, -0.1099564245409356, 0.04850629612995604, 0.1276781186334716, 0.0655898127009081, -0.1069161825795242, 0.10475284258270696, 0.08234999015757997, 0.022410403539573878, -0.07248827873117118, -0.12816418070059624, 0.028066809710067482, 0.009731225254486064, -0.036593913876598286, -0.02270645177815618, 0.12257114265480891, -0.02521297779400807, 0.08721206785660396, -0.06161857953370021, 0.0485428587046038, 0.03278550409141906, -0.040388527454495976, 0.04180118684087427, 0.08028197171486778, -0.11363651294561512, 0.032854069762951243, -0.0948375867929426, -0.018141347015950944, -0.05288472613301972, -0.06706072959176293, -0.035625412838290904, 0.020013679432909364, -0.21079228828642396, 0.04753049282246291, 0.111769280951655, -0.05975781345612498, -0.027698355601357538, 0.03359999359358813, 0.0331517929006995, 0.16256537372757204, 0.03540827013062784, 0.011487868536439556, -0.00547768632375294, 0.07402222005369057, 0.03896575664625356, 0.14230524416886348, -0.014502297132852995, 0.0485264578862905, 0.1131554881255507, 0.09434534848622128, -0.021714822071380056, 0.030373187902150864, 0.053146068267667136, 0.10233362364847937, -0.025390164012213983, -0.0672504798773467, 0.03071117858106004, -0.027932608370044704, -0.09227329278222225, 0.11076266898851495, 0.043028240149868495, 0.10320467716165266, -0.07564146654222467, -0.03287175017781262, -0.012007708072539843, 0.006240856407000971, -0.023300108021994184, -0.05469178905013232, 0.02309736588112145, 0.016682855370818074, -0.10234820754732525, -0.017015809479522553, -0.00918670941363479, 0.04669527562164799, -0.007777403695849884, -0.06525383981446568, 0.07086126979607707, -0.08839259655372442, 0.08920884019613233, -0.009090382990494247, -0.029232794336459075, 0.06423446905958088, -0.05471745303594088, 0.009497805727861986, -0.13876765683892212, -0.016560322005128747, 0.10075422932575862, -0.08182032918290844, 0.024478601625494482, -0.012585940556321845, -0.028346354657444697, -0.006081133963118706, 0.10155965405585875, 0.02216410008564621, 0.10753212112947233, -0.025248413510401697, -0.030308068520278078, -0.08302179655710734, -0.05266298048985601, -0.10234341093023863, -0.09885092739694229, 0.004070959818243561, -0.05445048754924218, -0.0015616604667010499, -0.023252309862714884, 0.05998679943693319, 0.046611580143442174, -0.033747739653039524, -0.048839581279025414, -0.09769874312108559, -0.07710507236137092, -0.14454957725697617, 0.013779084645198295, 0.008423225582554737, 0.05661842667217805, 0.051382116570411, 0.007243633760014961, -0.13311669775017587, 0.04539174580679291, 0.03444683661404498, -0.10736299292332535, 0.047824617286728766, -0.007011945531515528, -0.0208666120891777, 0.0595382068016841, 0.025058005026449785, -0.050543708793196425, 0.07794011241654218, 0.012991004762505639, 0.09055188370829474, -0.027977047109494037, -0.14144422071081494, -0.03169267588319093, 0.024928470888038512, -0.031504261508086606, 0.03451273685586089, -0.007441549621564817, -0.04833584397971229, -0.035752549932347555, 0.019983822306468103, 0.05584705384226781, 0.08655404948682184, -0.029503080526813254, -0.0007353803190014365, 0.07484235697348031, 0.024810718329936487, 0.002039736241817181, 0.07352392606862385, -0.10543597494159603, -0.10131255022041662, 0.020607105220462225, -0.009790556729868359, 0.009736429578972994], [0.10964041162892023, -0.08040373886676423, 0.024234270619282804, -0.08632966783849735, 0.03156885663502045, -0.0032305804112493673, 0.011432727628434594, 0.005793652705268878, 0.10028392979991772, -0.024923723750496736, -0.06252666963082124, -0.02848810694430285, -0.08124684206031973, 0.02043032955770605, -0.07899000702750524, 0.02903000630806938, 0.11584049988845435, 0.08511838407441469, 0.12301566509028104, -0.05158234009703104, 0.019176968807491278, 0.029755267111572625, -0.030000318177887755, 0.01381398026507244, -0.08865797341229685, -0.07924868570251595, 0.08600037910522333, 0.044278202956436356, 0.040659127031724224, -0.06418197280216073, 0.10197609410844513, 0.06918812374371, 0.04068827529318207, 0.07804005310116503, 0.13101154556357109, -0.05066548521528388, 0.0487759245448776, 0.03171690088640691, 0.1017302443280473, 0.0022672401293036856, 0.014848426308001431, 0.024416983035998253, 0.05790930308043236, -0.02852066859788793, -0.03378539216357533, -0.04866430984942536, 0.016773435569324327, 0.08166505392437372, 0.16267753945391478, -0.08119928984225444, -0.11355227696802088, 0.01330350825946321, 0.04720407937521965, -0.09031895122265236, 0.04382673733289028, 0.028550754611273703, 0.019050419542159636, 0.025147869249143695, 0.08384569442460599, 0.011909181152709763, 0.049702263747459764, -0.08004207855508369, -0.17074216648140625, 0.06895881991358273, 0.05421070806502301, -0.01811864525815126, 0.008221126924337178, 0.046646284947183446, 0.06337519901408965, 0.016905282960900433, 0.1250335353040619, 0.11171461054135244, 0.04139211184616124, 0.0376105664010823, -0.14025626071167668, 0.08026968547301241, -0.0342161698639351, -0.12613019165979172, -0.0054222949536367705, 0.08872504717924617, 0.12695524295386473, 0.16038076314955052, -0.09162405256407986, -0.08285014702995788, -0.06129890128234098, 0.05973240946482043, -0.009761663415220532, 0.02163799367541233, -0.07557473125725686, 0.018046824642005323, -0.023083807618602292, 0.11893887055181879, 0.05712868397814011, -0.06724825421023982, -0.1001278168272909, 0.11490114429361885, -0.07931343481574885, 0.014962875286641131, 0.0007710702716844657, -0.06368154087967406, -0.00447317009066496, 0.05790185756463676, 0.12103867556636848, -0.018633043108297068, -0.02771155854502111, -0.02423887582509771, 0.02966097168898517, 0.0014478209345543261, 0.026044835828808545, -0.09848372457119718, 0.07609642032783477, -0.0015926211159026217, 0.0005211344821938196, 0.012003512305402732, 0.012018864109408577, -0.0135960887030345, 0.015492823884865354, 0.021762919703503473, -0.06146128803688219, 0.08328904563388217, 0.07594410088501526, 0.05374377040311008, -0.03782944637603699, 0.03920763502558616, 0.04371727798620717, -0.08464147334198413, 0.04618834245437959, 0.09937313642542212, -0.08895044605728568, -0.072267508239952, 0.03452080657597881, -0.1094402895189337, -0.12873111618690078, 0.0765229468844028, 0.05817583673818762, -0.07987905685588334, -0.07652192711397988, -0.042340156072546944, 0.07144080511702758, 0.07284910734401728, -0.11266952041388692, 0.09477612138958236, -0.03279111543619783, 0.034926285718213004, -0.10942276032159835, -0.09533580425732895, -0.06542449058432515, 0.02603544790907585, -0.10952594182286053, 0.18664008746485594, 0.0490112599421933, 0.03765019755957343, -0.09533399566759831, 0.031085006568560516, 0.11643100324351252, 0.09388083778707938, 0.034233595506310145, 0.058681884714751775, 0.005058561847224626, 0.10334834034636145, -0.0034508642019404063, -0.03641581510898575, -0.021184914660815256, 0.043328605286681254, -0.02972989040552396, 0.05737410367741719, 0.04058597170939061, -0.0023890789271872677, -0.07711531070342534, -0.15856554261684108, 0.09737269170517703, 0.00046698263705373627, -0.060655991958211856, -0.062008535105558434, 0.012468701718933542, -0.01651380034807901, 0.08190949130950016, -0.043522700154021626, 0.030629871297835225, -0.007565538921378525, -0.0764683131854886, 0.1046975511898704, -0.13945074138585078, -0.16165190022309314, 0.011651200425740872, -0.13282667408369425, 0.033134223152879984, 0.009069973594574787, -0.025854123615844722, 0.04878195422895144, -0.1805662136285224, 0.06532832717327264, 0.05028271055955929, -0.09003173612756832, -0.07945446168545564, -0.11434742029105383, 0.04809619523007368, 0.009323643788261898, 0.09089652889305787, -0.14073715539963663, -0.003173981779930717, 0.05765051275701425, 0.05744412776211785, 0.08003678184745898, 0.09201950097854485, 0.016773612884018563, 0.018513663016015203, 0.11055675377183136, -0.0563560080560734, -0.004269900668559913, -0.07320800330798372, 0.07861003993233891, 0.10298189082210324, 0.11735444946576894, -0.056245401943069304, -0.02642099292305027, 0.006821524308130771, -0.01838305434042786, 0.01725899362377069, -0.0043461216084684715, 0.03132344943392753, -0.00850453424712166, -0.06183435800360171, -0.042041305274648715, 0.010664776072143204, 0.03806205793103402, 0.10652049599647315, -0.060336390753850486, 0.09220523148416351, -0.008163872676934634, -0.14258846898778568, 0.008949940653448472, -0.052597295162392164, 0.06633186408857643, 0.008311553503709181, -0.09421413821303298, 0.03362365301265369, 0.09215452342798273, 0.06348842609376916, 0.0004137974064412957, -0.07682967779098542, 0.12935733966495092, -0.06624128964645815, -0.10475837740979707, 0.05783739474608132, -0.06534105587670051, 0.029489913670323997, -0.08668565859053079, -0.10462068707396349, -0.07451387262893344, 0.11187517689353783, 0.12245957498977608, -0.08121349061538395, 0.06013097080064322, -0.05160412543013578, 0.024547613937204924], [0.08330454323721902, 0.00890644628771826, -0.10184218432280087, 0.05682551247301171, -0.07817218377897954, 0.013646220094160635, 0.041051918468768656, -0.10731909592544765, 0.08994080453397424, 0.021142054470143997, -0.08334512478377301, 0.06449561661021957, -0.08045002899833684, -0.0037138222871025547, 0.03680466702099669, -0.051790793226677595, -0.09600235995246509, 0.11288818572497324, 0.02855030932663911, -0.05813804940066226, 0.010487836963647064, -0.020517602571356094, -0.028689340944424574, -0.16345821331088256, 0.10900045290153938, 0.012544327447084034, 0.08522102762545855, -0.06466324927354572, -0.08183061343639228, 0.04256118510205835, -0.17483466693434999, -0.1106234311118828, -0.10239114152090717, -0.009238349376461742, -0.055592718448193336, 0.1006269888505368, 0.034509463291047725, -0.032430524985638316, 0.13221606760682864, 0.028635714769433766, 0.027573012058813694, 0.0013467711454288136, 0.038881460158905964, -0.09927600645056785, 0.058806591702099696, 0.05432077147288046, -0.0680360993790769, 0.015120092530375051, 0.04352358131424658, -0.03750010395569356, 0.06580915054086835, 0.010797228721165389, -0.022273903461111442, 0.11854505118436616, -0.02615315839972971, -0.03020747308973371, -0.04844905007925434, 0.05312763004251197, -0.008045844883537392, 0.10697626012544073, 0.13823271339313006, -0.01707225708063824, 0.02745884338281474, 0.013437660124599382, -0.1185823048453991, -0.05190724790620092, 0.009894045394697851, 0.02049236448554444, 0.004490931891016342, 0.0818059022625327, -0.07762157478048777, 0.06007096228831596, -0.12700321592946398, 0.006801955573317396, -0.12273277585557729, 0.022034959002101024, -0.09650622622367984, 0.0788193628690712, 0.014673487211615842, -0.012501478807004727, 0.14921528323382593, -0.07017951855172094, -0.09802842042193986, -0.04650312335703996, -0.03040918833578249, -0.04416051078058706, -0.10294217093519228, -0.05806236802155708, -0.06315961279684432, -0.0733048566285482, 0.014049326203973476, -0.06178497354008786, -0.07490959299850107, 0.07552046909425053, 0.014894131229251298, 0.007081573726943808, 0.031266949662666896, 0.12541091896605563, -0.11471437250545606, -0.09520965722537726, -0.05465718866467034, 0.14069038215870583, -0.048792092496398154, 0.026265369783561924, -0.011622821210652013, 0.21867511603547862, -0.07629342193628946, -0.054950378601016016, -0.04829972706945097, 0.028145630584061658, -0.007674909617617421, -0.01671888753746318, 0.05748355581818737, -0.06197976895250717, -0.006384880124291699, 0.024721750263037363, -0.056280039822364666, 0.07476498640032553, 0.1347950906409959, -0.00435828109469736, 0.07441390288626647, -0.016471732748729914, -0.016569331894734828, 0.11275541551044159, -0.013204538232083795, -0.050765530668152606, -0.01758860031814349, 0.054979136884185174, -0.10439660519530304, 0.012640188598711804, -0.052933322510957226, 0.04944693255583858, 0.020758391541577628, 0.04908227037244449, 0.2057715449195402, 0.0745806858429443, -0.06118068587253862, 0.168323549541379, -0.12073492185653578, 0.03045747470230241, -0.010599637344328517, 0.04047834482083521, 0.051622179722987, 0.023912569136251415, -0.06238244150555876, 0.0357152140728708, 0.016830557874003057, 0.07089788161218802, -0.13628984354422063, 0.05231979746925112, -0.03646390298498686, 0.09841769217987602, 0.04085696065866167, 0.1306316841466323, -0.096713521559612, -0.008958329257267984, -0.03167997398802319, -0.0298731519065344, -0.03447613721074277, -0.12303565388109701, -0.01881486223622436, 0.07865135188746343, -0.022188450914849132, 0.03583492739091952, -0.017538398443625997, -0.07127046827142676, 0.11486833980402028, -0.05428300036335891, 0.04160528739691834, -0.00570523184933081, 0.031548286985960454, 0.13432996281026338, -0.003841913270901117, 0.01865008002516588, -0.015336366647821491, 0.0381132833267297, -0.01937193674574185, -0.08588373487237322, 0.01759167374210044, -0.03294144831110658, 0.11076997308396523, -0.12108831942161909, -0.05650281404333993, 0.04505304372619061, -0.059933701268603416, 0.06315330789351695, 0.03776870704231465, -0.06093564532420658, -0.08969070592400241, -0.14423253999267938, 0.04083834673470407, 0.03442757597726298, -0.011487360594548163, 0.025489604787192408, 0.030336716806832986, 0.06696473698097212, 0.039012509006425125, 0.04388460055123217, -0.11076148472641144, 0.13365563409919953, -0.016501873438256428, 0.028163010058704818, 0.035077876648088493, -0.051096588735199934, -0.005895842063437084, -0.018248118158664842, 0.0043351738327261635, 0.049659940202794677, 0.02613114705691435, -0.01382544193076241, 0.0410340993834496, -0.05499524065416921, -0.05708519664042826, -0.14423886123732868, -0.10115296177063143, 0.0360680593442071, 0.05241311303865376, 0.030295304549965024, -0.09290566177370002, 0.01350054265841429, -0.022461479131281232, -0.09214504059413489, 0.06181650312629153, 0.09699815152374515, 0.16810934427548735, 0.02083732214346939, -0.0530774873635599, -0.0308930571451338, -0.03920960454220007, -0.004009919471527769, -0.0223781697318148, -0.0005324552665449465, -0.060155888127897364, 0.022473177137747376, -0.05810148929957467, -0.012033656522221247, 0.0643454488910483, 